<?xml version="1.0" encoding="UTF-8"?>
<!-- This network was created in GeNIe Academic, which can be used for academic teaching and research purposes only -->
<smile version="1.0" id="Sub0" numsamples="10000" discsamples="10000">
	<nodes>
		<cpt id="jordtype">
			<state id="Jb_1_" />
			<state id="JB_2" />
			<state id="JB_3" />
			<state id="JB_4" />
			<state id="JB_5" />
			<state id="JB_6" />
			<state id="Jb_7" />
			<state id="JB_8" />
			<state id="JB_9" />
			<probabilities>0.1111111111111111 0.1111111111111111 0.1111111111111111 0.1111111111111111 0.1111111111111111 0.1111111111111111 0.1111111111111111 0.1111111111111111 0.1111111111111111</probabilities>
		</cpt>
		<cpt id="komm">
			<state id="state0" />
			<state id="state1" />
			<state id="state2" />
			<state id="state3" />
			<state id="state4" />
			<probabilities>0.2 0.2 0.2 0.2 0.2</probabilities>
		</cpt>
		<cpt id="nedbarea">
			<state id="x1___375_" />
			<state id="x2__375_500_" />
			<state id="x3___500_" />
			<parents>komm</parents>
			<probabilities>0.3333333333333334 0.3333333333333334 0.3333333333333334 0.3333333333333334 0.3333333333333334 0.3333333333333334 0.3333333333333334 0.3333333333333334 0.3333333333333334 0.3333333333333334 0.3333333333333334 0.3333333333333334 0.3333333333333334 0.3333333333333334 0.3333333333333334</probabilities>
		</cpt>
		<cpt id="nmin">
			<state id="x0_15" />
			<state id="x15_30" />
			<state id="x30_45" />
			<state id="x45_60" />
			<state id="x60_75" />
			<state id="x_75" />
			<parents>jordtype nedbarea</parents>
			<probabilities>0.49980008 0.49980008 9.996e-05 9.996e-05 9.996e-05 9.996e-05 0.49980008 0.49980008 9.996e-05 9.996e-05 9.996e-05 9.996e-05 0.49980008 0.49980008 9.996e-05 9.996e-05 9.996e-05 9.996e-05 0.00209979 0.23537646 0.68583142 0.07639236000000001 0.00019998 9.999e-05 0.00619876 0.49370126 0.49370126 0.00619876 9.998e-05 9.998e-05 0.02279316 0.8183545000000002 0.15855243 9.997000000000003e-05 9.997000000000003e-05 9.997000000000003e-05 0.49980008 0.49980008 9.996e-05 9.996e-05 9.996e-05 9.996e-05 0.49980008 0.49980008 9.996e-05 9.996e-05 9.996e-05 9.996e-05 0.49980008 0.49980008 9.996e-05 9.996e-05 9.996e-05 9.996e-05 0.00209979 0.23537646 0.68583142 0.07639236000000001 0.00019998 9.999e-05 0.00619876 0.49370126 0.49370126 0.00619876 9.998e-05 9.998e-05 0.02279316 0.8183545000000002 0.15855243 9.997000000000003e-05 9.997000000000003e-05 9.997000000000003e-05 0.0004000000000000001 0.04740000000000001 0.4522000000000001 0.4522000000000001 0.04740000000000001 0.0004000000000000001 0.00089982 0.10477904 0.62827435 0.25974805 0.00619876 9.998e-05 0.00209979 0.23537646 0.68583142 0.07639236000000001 0.00019998 9.999e-05 0.0004000000000000001 0.04740000000000001 0.4522000000000001 0.4522000000000001 0.04740000000000001 0.0004000000000000001 0.00089982 0.10477904 0.62827435 0.25974805 0.00619876 9.998e-05 0.00209979 0.23537646 0.68583142 0.07639236000000001 0.00019998 9.999e-05 0.0004000000000000001 0.04740000000000001 0.4522000000000001 0.4522000000000001 0.04740000000000001 0.0004000000000000001 0.00089982 0.10477904 0.62827435 0.25974805 0.00619876 9.998e-05 0.00209979 0.23537646 0.68583142 0.07639236000000001 0.00019998 9.999e-05 0.0004000000000000001 0.04740000000000001 0.4522000000000001 0.4522000000000001 0.04740000000000001 0.0004000000000000001 0.00089982 0.10477904 0.62827435 0.25974805 0.00619876 9.998e-05 0.00209979 0.23537646 0.68583142 0.07639236000000001 0.00019998 9.999e-05 0.0004000000000000001 0.04740000000000001 0.4522000000000001 0.4522000000000001 0.04740000000000001 0.0004000000000000001 0.00089982 0.10477904 0.62827435 0.25974805 0.00619876 9.998e-05 0.00209979 0.23537646 0.68583142 0.07639236000000001 0.00019998 9.999e-05</probabilities>
		</cpt>
		<cpt id="aar_mod">
			<state id="x_25" />
			<state id="x_20" />
			<state id="x_15" />
			<state id="x_10" />
			<state id="x_5" />
			<state id="x0" />
			<state id="x5" />
			<state id="x10" />
			<state id="x15" />
			<state id="x20" />
			<state id="x25" />
			<parents>komm jordtype</parents>
			<probabilities>0.0909090909090909 0.0909090909090909 0.0909090909090909 0.0909090909090909 0.0909090909090909 0.0909090909090909 0.0909090909090909 0.0909090909090909 0.0909090909090909 0.0909090909090909 0.0909090909090909 0.0909090909090909 0.0909090909090909 0.0909090909090909 0.0909090909090909 0.0909090909090909 0.0909090909090909 0.0909090909090909 0.0909090909090909 0.0909090909090909 0.0909090909090909 0.0909090909090909 0.0909090909090909 0.0909090909090909 0.0909090909090909 0.0909090909090909 0.0909090909090909 0.0909090909090909 0.0909090909090909 0.0909090909090909 0.0909090909090909 0.0909090909090909 0.0909090909090909 0.0909090909090909 0.0909090909090909 0.0909090909090909 0.0909090909090909 0.0909090909090909 0.0909090909090909 0.0909090909090909 0.0909090909090909 0.0909090909090909 0.0909090909090909 0.0909090909090909 0.0909090909090909 0.0909090909090909 0.0909090909090909 0.0909090909090909 0.0909090909090909 0.0909090909090909 0.0909090909090909 0.0909090909090909 0.0909090909090909 0.0909090909090909 0.0909090909090909 0.0909090909090909 0.0909090909090909 0.0909090909090909 0.0909090909090909 0.0909090909090909 0.0909090909090909 0.0909090909090909 0.0909090909090909 0.0909090909090909 0.0909090909090909 0.0909090909090909 0.0909090909090909 0.0909090909090909 0.0909090909090909 0.0909090909090909 0.0909090909090909 0.0909090909090909 0.0909090909090909 0.0909090909090909 0.0909090909090909 0.0909090909090909 0.0909090909090909 0.0909090909090909 0.0909090909090909 0.0909090909090909 0.0909090909090909 0.0909090909090909 0.0909090909090909 0.0909090909090909 0.0909090909090909 0.0909090909090909 0.0909090909090909 0.0909090909090909 0.0909090909090909 0.0909090909090909 0.0909090909090909 0.0909090909090909 0.0909090909090909 0.0909090909090909 0.0909090909090909 0.0909090909090909 0.0909090909090909 0.0909090909090909 0.0909090909090909 0.0909090909090909 0.0909090909090909 0.0909090909090909 0.0909090909090909 0.0909090909090909 0.0909090909090909 0.0909090909090909 0.0909090909090909 0.0909090909090909 0.0909090909090909 0.0909090909090909 0.0909090909090909 0.0909090909090909 0.0909090909090909 0.0909090909090909 0.0909090909090909 0.0909090909090909 0.0909090909090909 0.0909090909090909 0.0909090909090909 0.0909090909090909 0.0909090909090909 0.0909090909090909 0.0909090909090909 0.0909090909090909 0.0909090909090909 0.0909090909090909 0.0909090909090909 0.0909090909090909 0.0909090909090909 0.0909090909090909 0.0909090909090909 0.0909090909090909 0.0909090909090909 0.0909090909090909 0.0909090909090909 0.0909090909090909 0.0909090909090909 0.0909090909090909 0.0909090909090909 0.0909090909090909 0.0909090909090909 0.0909090909090909 0.0909090909090909 0.0909090909090909 0.0909090909090909 0.0909090909090909 0.0909090909090909 0.0909090909090909 0.0909090909090909 0.0909090909090909 0.0909090909090909 0.0909090909090909 0.0909090909090909 0.0909090909090909 0.0909090909090909 0.0909090909090909 0.0909090909090909 0.0909090909090909 0.0909090909090909 0.0909090909090909 0.0909090909090909 0.0909090909090909 0.0909090909090909 0.0909090909090909 0.0909090909090909 0.0909090909090909 0.0909090909090909 0.0909090909090909 0.0909090909090909 0.0909090909090909 0.0909090909090909 0.0909090909090909 0.0909090909090909 0.0909090909090909 0.0909090909090909 0.0909090909090909 0.0909090909090909 0.0909090909090909 0.0909090909090909 0.0909090909090909 0.0909090909090909 0.0909090909090909 0.0909090909090909 0.0909090909090909 0.0909090909090909 0.0909090909090909 0.0909090909090909 0.0909090909090909 0.0909090909090909 0.0909090909090909 0.0909090909090909 0.0909090909090909 0.0909090909090909 0.0909090909090909 0.0909090909090909 0.0909090909090909 0.0909090909090909 0.0909090909090909 0.0909090909090909 0.0909090909090909 0.0909090909090909 0.0909090909090909 0.0909090909090909 0.0909090909090909 0.0909090909090909 0.0909090909090909 0.0909090909090909 0.0909090909090909 0.0909090909090909 0.0909090909090909 0.0909090909090909 0.0909090909090909 0.0909090909090909 0.0909090909090909 0.0909090909090909 0.0909090909090909 0.0909090909090909 0.0909090909090909 0.0909090909090909 0.0909090909090909 0.0909090909090909 0.0909090909090909 0.0909090909090909 0.0909090909090909 0.0909090909090909 0.0909090909090909 0.0909090909090909 0.0909090909090909 0.0909090909090909 0.0909090909090909 0.0909090909090909 0.0909090909090909 0.0909090909090909 0.0909090909090909 0.0909090909090909 0.0909090909090909 0.0909090909090909 0.0909090909090909 0.0909090909090909 0.0909090909090909 0.0909090909090909 0.0909090909090909 0.0909090909090909 0.0909090909090909 0.0909090909090909 0.0909090909090909 0.0909090909090909 0.0909090909090909 0.0909090909090909 0.0909090909090909 0.0909090909090909 0.0909090909090909 0.0909090909090909 0.0909090909090909 0.0909090909090909 0.0909090909090909 0.0909090909090909 0.0909090909090909 0.0909090909090909 0.0909090909090909 0.0909090909090909 0.0909090909090909 0.0909090909090909 0.0909090909090909 0.0909090909090909 0.0909090909090909 0.0909090909090909 0.0909090909090909 0.0909090909090909 0.0909090909090909 0.0909090909090909 0.0909090909090909 0.0909090909090909 0.0909090909090909 0.0909090909090909 0.0909090909090909 0.0909090909090909 0.0909090909090909 0.0909090909090909 0.0909090909090909 0.0909090909090909 0.0909090909090909 0.0909090909090909 0.0909090909090909 0.0909090909090909 0.0909090909090909 0.0909090909090909 0.0909090909090909 0.0909090909090909 0.0909090909090909 0.0909090909090909 0.0909090909090909 0.0909090909090909 0.0909090909090909 0.0909090909090909 0.0909090909090909 0.0909090909090909 0.0909090909090909 0.0909090909090909 0.0909090909090909 0.0909090909090909 0.0909090909090909 0.0909090909090909 0.0909090909090909 0.0909090909090909 0.0909090909090909 0.0909090909090909 0.0909090909090909 0.0909090909090909 0.0909090909090909 0.0909090909090909 0.0909090909090909 0.0909090909090909 0.0909090909090909 0.0909090909090909 0.0909090909090909 0.0909090909090909 0.0909090909090909 0.0909090909090909 0.0909090909090909 0.0909090909090909 0.0909090909090909 0.0909090909090909 0.0909090909090909 0.0909090909090909 0.0909090909090909 0.0909090909090909 0.0909090909090909 0.0909090909090909 0.0909090909090909 0.0909090909090909 0.0909090909090909 0.0909090909090909 0.0909090909090909 0.0909090909090909 0.0909090909090909 0.0909090909090909 0.0909090909090909 0.0909090909090909 0.0909090909090909 0.0909090909090909 0.0909090909090909 0.0909090909090909 0.0909090909090909 0.0909090909090909 0.0909090909090909 0.0909090909090909 0.0909090909090909 0.0909090909090909 0.0909090909090909 0.0909090909090909 0.0909090909090909 0.0909090909090909 0.0909090909090909 0.0909090909090909 0.0909090909090909 0.0909090909090909 0.0909090909090909 0.0909090909090909 0.0909090909090909 0.0909090909090909 0.0909090909090909 0.0909090909090909 0.0909090909090909 0.0909090909090909 0.0909090909090909 0.0909090909090909 0.0909090909090909 0.0909090909090909 0.0909090909090909 0.0909090909090909 0.0909090909090909 0.0909090909090909 0.0909090909090909 0.0909090909090909 0.0909090909090909 0.0909090909090909 0.0909090909090909 0.0909090909090909 0.0909090909090909 0.0909090909090909 0.0909090909090909 0.0909090909090909 0.0909090909090909 0.0909090909090909 0.0909090909090909 0.0909090909090909 0.0909090909090909 0.0909090909090909 0.0909090909090909 0.0909090909090909 0.0909090909090909 0.0909090909090909 0.0909090909090909 0.0909090909090909 0.0909090909090909 0.0909090909090909 0.0909090909090909 0.0909090909090909 0.0909090909090909 0.0909090909090909 0.0909090909090909 0.0909090909090909 0.0909090909090909 0.0909090909090909 0.0909090909090909 0.0909090909090909 0.0909090909090909 0.0909090909090909 0.0909090909090909 0.0909090909090909 0.0909090909090909 0.0909090909090909 0.0909090909090909 0.0909090909090909 0.0909090909090909 0.0909090909090909 0.0909090909090909 0.0909090909090909 0.0909090909090909 0.0909090909090909 0.0909090909090909 0.0909090909090909 0.0909090909090909 0.0909090909090909 0.0909090909090909 0.0909090909090909 0.0909090909090909 0.0909090909090909 0.0909090909090909 0.0909090909090909 0.0909090909090909 0.0909090909090909 0.0909090909090909 0.0909090909090909 0.0909090909090909 0.0909090909090909 0.0909090909090909 0.0909090909090909 0.0909090909090909 0.0909090909090909 0.0909090909090909 0.0909090909090909 0.0909090909090909 0.0909090909090909 0.0909090909090909 0.0909090909090909 0.0909090909090909 0.0909090909090909 0.0909090909090909 0.0909090909090909 0.0909090909090909 0.0909090909090909 0.0909090909090909 0.0909090909090909 0.0909090909090909 0.0909090909090909 0.0909090909090909 0.0909090909090909 0.0909090909090909 0.0909090909090909 0.0909090909090909 0.0909090909090909 0.0909090909090909 0.0909090909090909 0.0909090909090909 0.0909090909090909 0.0909090909090909 0.0909090909090909 0.0909090909090909 0.0909090909090909 0.0909090909090909 0.0909090909090909 0.0909090909090909 0.0909090909090909 0.0909090909090909 0.0909090909090909 0.0909090909090909 0.0909090909090909 0.0909090909090909 0.0909090909090909 0.0909090909090909 0.0909090909090909 0.0909090909090909 0.0909090909090909 0.0909090909090909 0.0909090909090909 0.0909090909090909 0.0909090909090909 0.0909090909090909 0.0909090909090909 0.0909090909090909 0.0909090909090909 0.0909090909090909 0.0909090909090909</probabilities>
		</cpt>
		<cpt id="forfrugt">
			<state id="Cereals" />
			<state id="Cer_rotation" />
			<state id="Beets" />
			<state id="Clovergrass" />
			<state id="Other" />
			<probabilities>0.2 0.2 0.2 0.2 0.2</probabilities>
		</cpt>
		<cpt id="potnmin">
			<state id="x0_15" />
			<state id="x15_30" />
			<state id="x30_45" />
			<state id="x45_60" />
			<state id="x60_75" />
			<state id="x75_90" />
			<state id="x90_105" />
			<state id="x_105" />
			<parents>jordtype forfrugt</parents>
			<probabilities>0.9981011399999998 0.00129922 9.993999999999997e-05 9.993999999999997e-05 9.993999999999997e-05 9.993999999999997e-05 9.993999999999997e-05 9.993999999999997e-05 0.38194722 0.50259896 0.11155538 0.0034986 9.996e-05 9.996e-05 9.996e-05 9.996e-05 0.02278861 0.8181909000000003 0.15852074 9.995000000000003e-05 9.995000000000003e-05 9.995000000000003e-05 9.995000000000003e-05 9.995000000000003e-05 0.1303 0.2953000000000001 0.3477000000000001 0.1809 0.04140000000000001 0.004100000000000001 0.0002000000000000001 0.0001 0.00329934 0.28044391 0.6579684099999999 0.05788842 9.998e-05 9.998e-05 9.998e-05 9.998e-05 0.27416292 0.7171414300000001 0.008195900000000002 9.995000000000003e-05 9.995000000000003e-05 9.995000000000003e-05 9.995000000000003e-05 9.995000000000003e-05 0.1032793410327934 0.2145570921455709 0.3060387930603879 0.2415516924155169 0.105478901054789 0.02539492025394921 0.003399320033993201 0.0002999400029994 9.997999999999997e-05 0.008098379999999999 0.17586483 0.5415916799999999 0.25634873 0.01769646 0.0001999599999999999 9.997999999999997e-05 0.08600000000000001 0.07270000000000001 0.1043 0.1312 0.1446 0.1396 0.1181 0.2035 0.0029 0.0174 0.0709 0.1767 0.27 0.253 0.1453 0.0638 0.9981011399999998 0.00129922 9.993999999999997e-05 9.993999999999997e-05 9.993999999999997e-05 9.993999999999997e-05 9.993999999999997e-05 9.993999999999997e-05 0.38194722 0.50259896 0.11155538 0.0034986 9.996e-05 9.996e-05 9.996e-05 9.996e-05 0.02278861 0.8181909000000003 0.15852074 9.995000000000003e-05 9.995000000000003e-05 9.995000000000003e-05 9.995000000000003e-05 9.995000000000003e-05 0.1303 0.2953000000000001 0.3477000000000001 0.1809 0.04140000000000001 0.004100000000000001 0.0002000000000000001 0.0001 0.00329934 0.28044391 0.6579684099999999 0.05788842 9.998e-05 9.998e-05 9.998e-05 9.998e-05 0.27416292 0.7171414300000001 0.008195900000000002 9.995000000000003e-05 9.995000000000003e-05 9.995000000000003e-05 9.995000000000003e-05 9.995000000000003e-05 0.1032793410327934 0.2145570921455709 0.3060387930603879 0.2415516924155169 0.105478901054789 0.02539492025394921 0.003399320033993201 0.0002999400029994 9.997999999999997e-05 0.008098379999999999 0.17586483 0.5415916799999999 0.25634873 0.01769646 0.0001999599999999999 9.997999999999997e-05 0.08600000000000001 0.07270000000000001 0.1043 0.1312 0.1446 0.1396 0.1181 0.2035 0.0029 0.0174 0.0709 0.1767 0.27 0.253 0.1453 0.0638 0.26219512 0.50399841 0.21521391 0.0179928 0.00029988 9.996e-05 9.996e-05 9.996e-05 0.03409659034096591 0.1391860813918608 0.3031696830316968 0.3183681631836817 0.1610838916108389 0.03919608039196081 0.004599540045995401 0.0002999700029997 0.0649 0.0796 0.1278 0.1675 0.1793 0.1566 0.1116 0.1127 0.1294 0.0581 0.07190000000000001 0.08400000000000001 0.0925 0.09619999999999999 0.0944 0.3735 0.06020602060206021 0.0484048404840484 0.07150715071507152 0.09550955095509552 0.1154115411541154 0.1259125912591259 0.1242124212421242 0.3588358835883588 0.26219512 0.50399841 0.21521391 0.0179928 0.00029988 9.996e-05 9.996e-05 9.996e-05 0.03409659034096591 0.1391860813918608 0.3031696830316968 0.3183681631836817 0.1610838916108389 0.03919608039196081 0.004599540045995401 0.0002999700029997 0.0649 0.0796 0.1278 0.1675 0.1793 0.1566 0.1116 0.1127 0.1294 0.0581 0.07190000000000001 0.08400000000000001 0.0925 0.09619999999999999 0.0944 0.3735 0.06020602060206021 0.0484048404840484 0.07150715071507152 0.09550955095509552 0.1154115411541154 0.1259125912591259 0.1242124212421242 0.3588358835883588 0.26219512 0.50399841 0.21521391 0.0179928 0.00029988 9.996e-05 9.996e-05 9.996e-05 0.03409659034096591 0.1391860813918608 0.3031696830316968 0.3183681631836817 0.1610838916108389 0.03919608039196081 0.004599540045995401 0.0002999700029997 0.0649 0.0796 0.1278 0.1675 0.1793 0.1566 0.1116 0.1127 0.1294 0.0581 0.07190000000000001 0.08400000000000001 0.0925 0.09619999999999999 0.0944 0.3735 0.06020602060206021 0.0484048404840484 0.07150715071507152 0.09550955095509552 0.1154115411541154 0.1259125912591259 0.1242124212421242 0.3588358835883588 0.26219512 0.50399841 0.21521391 0.0179928 0.00029988 9.996e-05 9.996e-05 9.996e-05 0.03409659034096591 0.1391860813918608 0.3031696830316968 0.3183681631836817 0.1610838916108389 0.03919608039196081 0.004599540045995401 0.0002999700029997 0.0649 0.0796 0.1278 0.1675 0.1793 0.1566 0.1116 0.1127 0.1294 0.0581 0.07190000000000001 0.08400000000000001 0.0925 0.09619999999999999 0.0944 0.3735 0.06020602060206021 0.0484048404840484 0.07150715071507152 0.09550955095509552 0.1154115411541154 0.1259125912591259 0.1242124212421242 0.3588358835883588 0.26219512 0.50399841 0.21521391 0.0179928 0.00029988 9.996e-05 9.996e-05 9.996e-05 0.03409659034096591 0.1391860813918608 0.3031696830316968 0.3183681631836817 0.1610838916108389 0.03919608039196081 0.004599540045995401 0.0002999700029997 0.0649 0.0796 0.1278 0.1675 0.1793 0.1566 0.1116 0.1127 0.1294 0.0581 0.07190000000000001 0.08400000000000001 0.0925 0.09619999999999999 0.0944 0.3735 0.06020602060206021 0.0484048404840484 0.07150715071507152 0.09550955095509552 0.1154115411541154 0.1259125912591259 0.1242124212421242 0.3588358835883588</probabilities>
		</cpt>
		<cpt id="jordn">
			<state id="x0_15" />
			<state id="x15_30" />
			<state id="x30_45" />
			<state id="x45_60" />
			<state id="x60_75" />
			<state id="x75_90" />
			<state id="x90_105" />
			<state id="x105_120" />
			<state id="x_120" />
			<parents>nmin aar_mod potnmin</parents>
			<probabilities>9.992000000000001e-05 9.992000000000001e-05 0.99920064 9.992000000000001e-05 9.992000000000001e-05 9.992000000000001e-05 9.992000000000001e-05 9.992000000000001e-05 9.992000000000001e-05 9.992000000000001e-05 9.992000000000001e-05 9.992000000000001e-05 0.99920064 9.992000000000001e-05 9.992000000000001e-05 9.992000000000001e-05 9.992000000000001e-05 9.992000000000001e-05 9.992000000000001e-05 9.992000000000001e-05 9.992000000000001e-05 9.992000000000001e-05 0.99920064 9.992000000000001e-05 9.992000000000001e-05 9.992000000000001e-05 9.992000000000001e-05 9.992000000000001e-05 9.992000000000001e-05 9.992000000000001e-05 9.992000000000001e-05 9.992000000000001e-05 0.99920064 9.992000000000001e-05 9.992000000000001e-05 9.992000000000001e-05 9.992000000000001e-05 9.992000000000001e-05 9.992000000000001e-05 9.992000000000001e-05 9.992000000000001e-05 9.992000000000001e-05 0.99920064 9.992000000000001e-05 9.992000000000001e-05 9.992000000000001e-05 9.992000000000001e-05 9.992000000000001e-05 9.992000000000001e-05 9.992000000000001e-05 9.992000000000001e-05 9.992000000000001e-05 0.99920064 9.992000000000001e-05 9.992000000000001e-05 9.992000000000001e-05 9.992000000000001e-05 9.992000000000001e-05 9.992000000000001e-05 9.992000000000001e-05 9.992000000000001e-05 9.992000000000001e-05 0.99920064 9.992000000000001e-05 9.992000000000001e-05 9.992000000000001e-05 9.992000000000001e-05 9.992000000000001e-05 9.992000000000001e-05 9.992000000000001e-05 9.992000000000001e-05 0.99920064 9.992000000000001e-05 9.992000000000001e-05 0.99920064 9.992000000000001e-05 9.992000000000001e-05 9.992000000000001e-05 9.992000000000001e-05 9.992000000000001e-05 9.992000000000001e-05 9.992000000000001e-05 9.992000000000001e-05 9.992000000000001e-05 0.99920064 9.992000000000001e-05 9.992000000000001e-05 9.992000000000001e-05 9.992000000000001e-05 9.992000000000001e-05 9.992000000000001e-05 9.992000000000001e-05 9.992000000000001e-05 9.992000000000001e-05 0.99920064 9.992000000000001e-05 9.992000000000001e-05 9.992000000000001e-05 9.992000000000001e-05 9.992000000000001e-05 9.992000000000001e-05 9.992000000000001e-05 9.992000000000001e-05 9.992000000000001e-05 0.99920064 9.992000000000001e-05 9.992000000000001e-05 9.992000000000001e-05 9.992000000000001e-05 9.992000000000001e-05 9.992000000000001e-05 9.992000000000001e-05 9.992000000000001e-05 9.992000000000001e-05 0.99920064 9.992000000000001e-05 9.992000000000001e-05 9.992000000000001e-05 9.992000000000001e-05 9.992000000000001e-05 9.992000000000001e-05 9.992000000000001e-05 9.992000000000001e-05 9.992000000000001e-05 0.99920064 9.992000000000001e-05 9.992000000000001e-05 9.992000000000001e-05 9.992000000000001e-05 9.992000000000001e-05 9.992000000000001e-05 9.992000000000001e-05 9.992000000000001e-05 9.992000000000001e-05 0.99920064 9.992000000000001e-05 9.992000000000001e-05 9.992000000000001e-05 9.992000000000001e-05 9.992000000000001e-05 9.992000000000001e-05 9.992000000000001e-05 9.992000000000001e-05 0.99920064 9.993000099930002e-05 0.4996502449965025 0.4996502449965025 9.993000099930002e-05 9.993000099930002e-05 9.993000099930002e-05 9.993000099930002e-05 9.993000099930002e-05 9.993000099930002e-05 9.993000099930002e-05 9.993000099930002e-05 0.4996502449965025 0.4996502449965025 9.993000099930002e-05 9.993000099930002e-05 9.993000099930002e-05 9.993000099930002e-05 9.993000099930002e-05 9.993000099930002e-05 9.993000099930002e-05 9.993000099930002e-05 0.4996502449965025 0.4996502449965025 9.993000099930002e-05 9.993000099930002e-05 9.993000099930002e-05 9.993000099930002e-05 9.993000099930002e-05 9.993000099930002e-05 9.993000099930002e-05 9.993000099930002e-05 0.4996502449965025 0.4996502449965025 9.993000099930002e-05 9.993000099930002e-05 9.993000099930002e-05 9.993000099930002e-05 9.993000099930002e-05 9.993000099930002e-05 9.993000099930002e-05 9.993000099930002e-05 0.4996502449965025 0.4996502449965025 9.993000099930002e-05 9.993000099930002e-05 9.993000099929999e-05 9.993000099929999e-05 9.993000099929999e-05 9.993000099929999e-05 9.993000099929999e-05 9.993000099929999e-05 0.4996502449965024 0.4996502449965024 9.993000099929999e-05 9.993000099929999e-05 9.993000099929999e-05 9.993000099929999e-05 9.993000099929999e-05 9.993000099929999e-05 9.993000099929999e-05 9.993000099929999e-05 0.4996502449965024 0.4996502449965024 9.992000000000001e-05 9.992000000000001e-05 9.992000000000001e-05 9.992000000000001e-05 9.992000000000001e-05 9.992000000000001e-05 9.992000000000001e-05 9.992000000000001e-05 0.99920064 9.991999999999998e-05 0.9992006399999998 9.991999999999998e-05 9.991999999999998e-05 9.991999999999998e-05 9.991999999999998e-05 9.991999999999998e-05 9.991999999999998e-05 9.991999999999998e-05 9.992000000000001e-05 9.992000000000001e-05 0.99920064 9.992000000000001e-05 9.992000000000001e-05 9.992000000000001e-05 9.992000000000001e-05 9.992000000000001e-05 9.992000000000001e-05 9.992000000000001e-05 9.992000000000001e-05 9.992000000000001e-05 0.99920064 9.992000000000001e-05 9.992000000000001e-05 9.992000000000001e-05 9.992000000000001e-05 9.992000000000001e-05 9.992000000000001e-05 9.992000000000001e-05 9.992000000000001e-05 9.992000000000001e-05 0.99920064 9.992000000000001e-05 9.992000000000001e-05 9.992000000000001e-05 9.992000000000001e-05 9.992000000000001e-05 9.992000000000001e-05 9.992000000000001e-05 9.992000000000001e-05 9.992000000000001e-05 0.99920064 9.992000000000001e-05 9.992000000000001e-05 9.992000000000001e-05 9.992000000000001e-05 9.992000000000001e-05 9.992000000000001e-05 9.992000000000001e-05 9.992000000000001e-05 9.992000000000001e-05 0.99920064 9.992000000000001e-05 9.992000000000001e-05 9.992000000000001e-05 9.992000000000001e-05 9.992000000000001e-05 9.992000000000001e-05 9.992000000000001e-05 9.992000000000001e-05 9.992000000000001e-05 0.99920064 9.992000000000001e-05 9.992000000000001e-05 9.992000000000001e-05 9.992000000000001e-05 9.992000000000001e-05 9.992000000000001e-05 9.992000000000001e-05 9.992000000000001e-05 9.992000000000001e-05 0.99920064 9.991999999999998e-05 0.9992006399999998 9.991999999999998e-05 9.991999999999998e-05 9.991999999999998e-05 9.991999999999998e-05 9.991999999999998e-05 9.991999999999998e-05 9.991999999999998e-05 9.992000000000001e-05 9.992000000000001e-05 0.99920064 9.992000000000001e-05 9.992000000000001e-05 9.992000000000001e-05 9.992000000000001e-05 9.992000000000001e-05 9.992000000000001e-05 9.992000000000001e-05 9.992000000000001e-05 9.992000000000001e-05 0.99920064 9.992000000000001e-05 9.992000000000001e-05 9.992000000000001e-05 9.992000000000001e-05 9.992000000000001e-05 9.992000000000001e-05 9.992000000000001e-05 9.992000000000001e-05 9.992000000000001e-05 0.99920064 9.992000000000001e-05 9.992000000000001e-05 9.992000000000001e-05 9.992000000000001e-05 9.992000000000001e-05 9.992000000000001e-05 9.992000000000001e-05 9.992000000000001e-05 9.992000000000001e-05 0.99920064 9.992000000000001e-05 9.992000000000001e-05 9.992000000000001e-05 9.992000000000001e-05 9.992000000000001e-05 9.992000000000001e-05 9.992000000000001e-05 9.992000000000001e-05 9.992000000000001e-05 0.99920064 9.992000000000001e-05 9.992000000000001e-05 9.992000000000001e-05 9.992000000000001e-05 9.992000000000001e-05 9.992000000000001e-05 9.992000000000001e-05 9.992000000000001e-05 9.992000000000001e-05 0.99920064 9.992000000000001e-05 9.992000000000001e-05 9.992000000000001e-05 9.992000000000001e-05 9.992000000000001e-05 9.992000000000001e-05 9.992000000000001e-05 9.992000000000001e-05 9.992000000000001e-05 0.99920064 0.4996502449965025 0.4996502449965025 9.993000099930002e-05 9.993000099930002e-05 9.993000099930002e-05 9.993000099930002e-05 9.993000099930002e-05 9.993000099930002e-05 9.993000099930002e-05 9.993000099930002e-05 0.4996502449965025 0.4996502449965025 9.993000099930002e-05 9.993000099930002e-05 9.993000099930002e-05 9.993000099930002e-05 9.993000099930002e-05 9.993000099930002e-05 9.993000099930002e-05 9.993000099930002e-05 0.4996502449965025 0.4996502449965025 9.993000099930002e-05 9.993000099930002e-05 9.993000099930002e-05 9.993000099930002e-05 9.993000099930002e-05 9.993000099930002e-05 9.993000099930002e-05 9.993000099930002e-05 0.4996502449965025 0.4996502449965025 9.993000099930002e-05 9.993000099930002e-05 9.993000099930002e-05 9.993000099930002e-05 9.993000099930002e-05 9.993000099930002e-05 9.993000099930002e-05 9.993000099930002e-05 0.4996502449965025 0.4996502449965025 9.993000099930002e-05 9.993000099930002e-05 9.993000099930002e-05 9.993000099930002e-05 9.993000099930002e-05 9.993000099930002e-05 9.993000099930002e-05 9.993000099930002e-05 0.4996502449965025 0.4996502449965025 9.993000099930002e-05 9.993000099930002e-05 9.993000099929999e-05 9.993000099929999e-05 9.993000099929999e-05 9.993000099929999e-05 9.993000099929999e-05 9.993000099929999e-05 0.4996502449965024 0.4996502449965024 9.993000099929999e-05 9.992000000000001e-05 9.992000000000001e-05 9.992000000000001e-05 9.992000000000001e-05 9.992000000000001e-05 9.992000000000001e-05 9.992000000000001e-05 9.992000000000001e-05 0.99920064 0.9992006399999998 9.991999999999998e-05 9.991999999999998e-05 9.991999999999998e-05 9.991999999999998e-05 9.991999999999998e-05 9.991999999999998e-05 9.991999999999998e-05 9.991999999999998e-05 9.991999999999998e-05 0.9992006399999998 9.991999999999998e-05 9.991999999999998e-05 9.991999999999998e-05 9.991999999999998e-05 9.991999999999998e-05 9.991999999999998e-05 9.991999999999998e-05 9.992000000000001e-05 9.992000000000001e-05 0.99920064 9.992000000000001e-05 9.992000000000001e-05 9.992000000000001e-05 9.992000000000001e-05 9.992000000000001e-05 9.992000000000001e-05 9.992000000000001e-05 9.992000000000001e-05 9.992000000000001e-05 0.99920064 9.992000000000001e-05 9.992000000000001e-05 9.992000000000001e-05 9.992000000000001e-05 9.992000000000001e-05 9.992000000000001e-05 9.992000000000001e-05 9.992000000000001e-05 9.992000000000001e-05 0.99920064 9.992000000000001e-05 9.992000000000001e-05 9.992000000000001e-05 9.992000000000001e-05 9.992000000000001e-05 9.992000000000001e-05 9.992000000000001e-05 9.992000000000001e-05 9.992000000000001e-05 0.99920064 9.992000000000001e-05 9.992000000000001e-05 9.992000000000001e-05 9.992000000000001e-05 9.992000000000001e-05 9.992000000000001e-05 9.992000000000001e-05 9.992000000000001e-05 9.992000000000001e-05 0.99920064 9.992000000000001e-05 9.992000000000001e-05 9.992000000000001e-05 9.992000000000001e-05 9.992000000000001e-05 9.992000000000001e-05 9.992000000000001e-05 9.992000000000001e-05 9.992000000000001e-05 0.99920064 9.992000000000001e-05 0.9992006399999998 9.991999999999998e-05 9.991999999999998e-05 9.991999999999998e-05 9.991999999999998e-05 9.991999999999998e-05 9.991999999999998e-05 9.991999999999998e-05 9.991999999999998e-05 9.991999999999998e-05 0.9992006399999998 9.991999999999998e-05 9.991999999999998e-05 9.991999999999998e-05 9.991999999999998e-05 9.991999999999998e-05 9.991999999999998e-05 9.991999999999998e-05 9.992000000000001e-05 9.992000000000001e-05 0.99920064 9.992000000000001e-05 9.992000000000001e-05 9.992000000000001e-05 9.992000000000001e-05 9.992000000000001e-05 9.992000000000001e-05 9.992000000000001e-05 9.992000000000001e-05 9.992000000000001e-05 0.99920064 9.992000000000001e-05 9.992000000000001e-05 9.992000000000001e-05 9.992000000000001e-05 9.992000000000001e-05 9.992000000000001e-05 9.992000000000001e-05 9.992000000000001e-05 9.992000000000001e-05 0.99920064 9.992000000000001e-05 9.992000000000001e-05 9.992000000000001e-05 9.992000000000001e-05 9.992000000000001e-05 9.992000000000001e-05 9.992000000000001e-05 9.992000000000001e-05 9.992000000000001e-05 0.99920064 9.992000000000001e-05 9.992000000000001e-05 9.992000000000001e-05 9.992000000000001e-05 9.992000000000001e-05 9.992000000000001e-05 9.992000000000001e-05 9.992000000000001e-05 9.992000000000001e-05 0.99920064 9.992000000000001e-05 9.992000000000001e-05 9.992000000000001e-05 9.992000000000001e-05 9.992000000000001e-05 9.992000000000001e-05 9.992000000000001e-05 9.992000000000001e-05 9.992000000000001e-05 0.99920064 9.992000000000001e-05 0.9992006399999998 9.991999999999998e-05 9.991999999999998e-05 9.991999999999998e-05 9.991999999999998e-05 9.991999999999998e-05 9.991999999999998e-05 9.991999999999998e-05 9.991999999999998e-05 0.4996502449965025 0.4996502449965025 9.993000099930002e-05 9.993000099930002e-05 9.993000099930002e-05 9.993000099930002e-05 9.993000099930002e-05 9.993000099930002e-05 9.993000099930002e-05 9.993000099930002e-05 0.4996502449965025 0.4996502449965025 9.993000099930002e-05 9.993000099930002e-05 9.993000099930002e-05 9.993000099930002e-05 9.993000099930002e-05 9.993000099930002e-05 9.993000099930002e-05 9.993000099930002e-05 0.4996502449965025 0.4996502449965025 9.993000099930002e-05 9.993000099930002e-05 9.993000099930002e-05 9.993000099930002e-05 9.993000099930002e-05 9.993000099930002e-05 9.993000099930002e-05 9.993000099930002e-05 0.4996502449965025 0.4996502449965025 9.993000099930002e-05 9.993000099930002e-05 9.993000099930002e-05 9.993000099930002e-05 9.993000099930002e-05 9.993000099930002e-05 9.993000099930002e-05 9.993000099930002e-05 0.4996502449965025 0.4996502449965025 9.993000099930002e-05 9.993000099930002e-05 9.993000099930002e-05 9.993000099930002e-05 9.993000099930002e-05 9.993000099930002e-05 9.993000099930002e-05 9.993000099930002e-05 0.4996502449965025 0.4996502449965025 9.993000099930002e-05 9.993000099930002e-05 9.992000000000001e-05 9.992000000000001e-05 9.992000000000001e-05 9.992000000000001e-05 9.992000000000001e-05 9.992000000000001e-05 9.992000000000001e-05 0.99920064 9.992000000000001e-05 0.9992006399999998 9.991999999999998e-05 9.991999999999998e-05 9.991999999999998e-05 9.991999999999998e-05 9.991999999999998e-05 9.991999999999998e-05 9.991999999999998e-05 9.991999999999998e-05 0.9992006399999998 9.991999999999998e-05 9.991999999999998e-05 9.991999999999998e-05 9.991999999999998e-05 9.991999999999998e-05 9.991999999999998e-05 9.991999999999998e-05 9.991999999999998e-05 9.991999999999998e-05 0.9992006399999998 9.991999999999998e-05 9.991999999999998e-05 9.991999999999998e-05 9.991999999999998e-05 9.991999999999998e-05 9.991999999999998e-05 9.991999999999998e-05 9.992000000000001e-05 9.992000000000001e-05 0.99920064 9.992000000000001e-05 9.992000000000001e-05 9.992000000000001e-05 9.992000000000001e-05 9.992000000000001e-05 9.992000000000001e-05 9.992000000000001e-05 9.992000000000001e-05 9.992000000000001e-05 0.99920064 9.992000000000001e-05 9.992000000000001e-05 9.992000000000001e-05 9.992000000000001e-05 9.992000000000001e-05 9.992000000000001e-05 9.992000000000001e-05 9.992000000000001e-05 9.992000000000001e-05 0.99920064 9.992000000000001e-05 9.992000000000001e-05 9.992000000000001e-05 9.992000000000001e-05 9.992000000000001e-05 9.992000000000001e-05 9.992000000000001e-05 9.992000000000001e-05 9.992000000000001e-05 0.99920064 9.992000000000001e-05 9.992000000000001e-05 9.992000000000001e-05 9.992000000000001e-05 9.992000000000001e-05 9.992000000000001e-05 9.992000000000001e-05 9.992000000000001e-05 9.992000000000001e-05 0.99920064 9.992000000000001e-05 9.992000000000001e-05 0.9992006399999998 9.991999999999998e-05 9.991999999999998e-05 9.991999999999998e-05 9.991999999999998e-05 9.991999999999998e-05 9.991999999999998e-05 9.991999999999998e-05 9.991999999999998e-05 0.9992006399999998 9.991999999999998e-05 9.991999999999998e-05 9.991999999999998e-05 9.991999999999998e-05 9.991999999999998e-05 9.991999999999998e-05 9.991999999999998e-05 9.991999999999998e-05 9.991999999999998e-05 0.9992006399999998 9.991999999999998e-05 9.991999999999998e-05 9.991999999999998e-05 9.991999999999998e-05 9.991999999999998e-05 9.991999999999998e-05 9.991999999999998e-05 9.992000000000001e-05 9.992000000000001e-05 0.99920064 9.992000000000001e-05 9.992000000000001e-05 9.992000000000001e-05 9.992000000000001e-05 9.992000000000001e-05 9.992000000000001e-05 9.992000000000001e-05 9.992000000000001e-05 9.992000000000001e-05 0.99920064 9.992000000000001e-05 9.992000000000001e-05 9.992000000000001e-05 9.992000000000001e-05 9.992000000000001e-05 9.992000000000001e-05 9.992000000000001e-05 9.992000000000001e-05 9.992000000000001e-05 0.99920064 9.992000000000001e-05 9.992000000000001e-05 9.992000000000001e-05 9.992000000000001e-05 9.992000000000001e-05 9.992000000000001e-05 9.992000000000001e-05 9.992000000000001e-05 9.992000000000001e-05 0.99920064 9.992000000000001e-05 9.992000000000001e-05 9.992000000000001e-05 9.992000000000001e-05 9.992000000000001e-05 9.992000000000001e-05 9.992000000000001e-05 9.992000000000001e-05 9.992000000000001e-05 0.99920064 9.992000000000001e-05 9.992000000000001e-05 9.992000000000001e-05 9.992000000000001e-05 9.992000000000001e-05 0.99920064 9.992000000000001e-05 9.992000000000001e-05 9.992000000000001e-05 9.992000000000001e-05 9.992000000000001e-05 9.992000000000001e-05 9.992000000000001e-05 9.992000000000001e-05 9.992000000000001e-05 0.99920064 9.992000000000001e-05 9.992000000000001e-05 9.992000000000001e-05 9.992000000000001e-05 9.992000000000001e-05 9.992000000000001e-05 9.992000000000001e-05 9.992000000000001e-05 9.992000000000001e-05 0.99920064 9.992000000000001e-05 9.992000000000001e-05 9.992000000000001e-05 9.992000000000001e-05 9.992000000000001e-05 9.992000000000001e-05 9.992000000000001e-05 9.992000000000001e-05 9.992000000000001e-05 0.99920064 9.992000000000001e-05 9.992000000000001e-05 9.992000000000001e-05 9.992000000000001e-05 9.992000000000001e-05 9.992000000000001e-05 9.992000000000001e-05 9.992000000000001e-05 9.992000000000001e-05 0.99920064 9.992000000000001e-05 9.992000000000001e-05 9.992000000000001e-05 9.992000000000001e-05 9.992000000000001e-05 9.992000000000001e-05 9.992000000000001e-05 9.992000000000001e-05 9.992000000000001e-05 0.99920064 9.992000000000001e-05 9.992000000000001e-05 9.992000000000001e-05 9.992000000000001e-05 9.992000000000001e-05 9.992000000000001e-05 9.992000000000001e-05 9.992000000000001e-05 0.99920064 9.992000000000001e-05 9.992000000000001e-05 9.992000000000001e-05 9.992000000000001e-05 9.992000000000001e-05 9.992000000000001e-05 9.992000000000001e-05 9.992000000000001e-05 0.99920064 9.992000000000001e-05 9.992000000000001e-05 9.992000000000001e-05 0.99920064 9.992000000000001e-05 9.992000000000001e-05 9.992000000000001e-05 9.992000000000001e-05 9.992000000000001e-05 9.992000000000001e-05 9.992000000000001e-05 9.992000000000001e-05 9.992000000000001e-05 0.99920064 9.992000000000001e-05 9.992000000000001e-05 9.992000000000001e-05 9.992000000000001e-05 9.992000000000001e-05 9.992000000000001e-05 9.992000000000001e-05 9.992000000000001e-05 9.992000000000001e-05 0.99920064 9.992000000000001e-05 9.992000000000001e-05 9.992000000000001e-05 9.992000000000001e-05 9.992000000000001e-05 9.992000000000001e-05 9.992000000000001e-05 9.992000000000001e-05 9.992000000000001e-05 0.99920064 9.992000000000001e-05 9.992000000000001e-05 9.992000000000001e-05 9.992000000000001e-05 9.992000000000001e-05 9.992000000000001e-05 9.992000000000001e-05 9.992000000000001e-05 9.992000000000001e-05 0.99920064 9.992000000000001e-05 9.992000000000001e-05 9.992000000000001e-05 9.992000000000001e-05 9.992000000000001e-05 9.992000000000001e-05 9.992000000000001e-05 9.992000000000001e-05 9.992000000000001e-05 0.99920064 9.992000000000001e-05 9.992000000000001e-05 9.992000000000001e-05 9.992000000000001e-05 9.992000000000001e-05 9.992000000000001e-05 9.992000000000001e-05 9.992000000000001e-05 0.99920064 9.992000000000001e-05 9.992000000000001e-05 9.992000000000001e-05 9.992000000000001e-05 9.992000000000001e-05 9.992000000000001e-05 9.992000000000001e-05 9.992000000000001e-05 0.99920064 9.993000099930002e-05 9.993000099930002e-05 0.4996502449965025 0.4996502449965025 9.993000099930002e-05 9.993000099930002e-05 9.993000099930002e-05 9.993000099930002e-05 9.993000099930002e-05 9.993000099930002e-05 9.993000099930002e-05 9.993000099930002e-05 0.4996502449965025 0.4996502449965025 9.993000099930002e-05 9.993000099930002e-05 9.993000099930002e-05 9.993000099930002e-05 9.993000099930002e-05 9.993000099930002e-05 9.993000099930002e-05 9.993000099930002e-05 0.4996502449965025 0.4996502449965025 9.993000099930002e-05 9.993000099930002e-05 9.993000099930002e-05 9.993000099930002e-05 9.993000099930002e-05 9.993000099930002e-05 9.993000099930002e-05 9.993000099930002e-05 0.4996502449965025 0.4996502449965025 9.993000099930002e-05 9.993000099930002e-05 9.993000099929999e-05 9.993000099929999e-05 9.993000099929999e-05 9.993000099929999e-05 9.993000099929999e-05 9.993000099929999e-05 0.4996502449965024 0.4996502449965024 9.993000099929999e-05 9.993000099929999e-05 9.993000099929999e-05 9.993000099929999e-05 9.993000099929999e-05 9.993000099929999e-05 9.993000099929999e-05 9.993000099929999e-05 0.4996502449965024 0.4996502449965024 9.992000000000001e-05 9.992000000000001e-05 9.992000000000001e-05 9.992000000000001e-05 9.992000000000001e-05 9.992000000000001e-05 9.992000000000001e-05 9.992000000000001e-05 0.99920064 9.992000000000001e-05 9.992000000000001e-05 9.992000000000001e-05 9.992000000000001e-05 9.992000000000001e-05 9.992000000000001e-05 9.992000000000001e-05 9.992000000000001e-05 0.99920064 9.992000000000001e-05 9.992000000000001e-05 0.99920064 9.992000000000001e-05 9.992000000000001e-05 9.992000000000001e-05 9.992000000000001e-05 9.992000000000001e-05 9.992000000000001e-05 9.992000000000001e-05 9.992000000000001e-05 9.992000000000001e-05 0.99920064 9.992000000000001e-05 9.992000000000001e-05 9.992000000000001e-05 9.992000000000001e-05 9.992000000000001e-05 9.992000000000001e-05 9.992000000000001e-05 9.992000000000001e-05 9.992000000000001e-05 0.99920064 9.992000000000001e-05 9.992000000000001e-05 9.992000000000001e-05 9.992000000000001e-05 9.992000000000001e-05 9.992000000000001e-05 9.992000000000001e-05 9.992000000000001e-05 9.992000000000001e-05 0.99920064 9.992000000000001e-05 9.992000000000001e-05 9.992000000000001e-05 9.992000000000001e-05 9.992000000000001e-05 9.992000000000001e-05 9.992000000000001e-05 9.992000000000001e-05 9.992000000000001e-05 0.99920064 9.992000000000001e-05 9.992000000000001e-05 9.992000000000001e-05 9.992000000000001e-05 9.992000000000001e-05 9.992000000000001e-05 9.992000000000001e-05 9.992000000000001e-05 9.992000000000001e-05 0.99920064 9.992000000000001e-05 9.992000000000001e-05 9.992000000000001e-05 9.992000000000001e-05 9.992000000000001e-05 9.992000000000001e-05 9.992000000000001e-05 9.992000000000001e-05 9.992000000000001e-05 0.99920064 9.992000000000001e-05 9.992000000000001e-05 9.992000000000001e-05 9.992000000000001e-05 9.992000000000001e-05 9.992000000000001e-05 9.992000000000001e-05 9.992000000000001e-05 0.99920064 9.992000000000001e-05 9.992000000000001e-05 0.99920064 9.992000000000001e-05 9.992000000000001e-05 9.992000000000001e-05 9.992000000000001e-05 9.992000000000001e-05 9.992000000000001e-05 9.992000000000001e-05 9.992000000000001e-05 9.992000000000001e-05 0.99920064 9.992000000000001e-05 9.992000000000001e-05 9.992000000000001e-05 9.992000000000001e-05 9.992000000000001e-05 9.992000000000001e-05 9.992000000000001e-05 9.992000000000001e-05 9.992000000000001e-05 0.99920064 9.992000000000001e-05 9.992000000000001e-05 9.992000000000001e-05 9.992000000000001e-05 9.992000000000001e-05 9.992000000000001e-05 9.992000000000001e-05 9.992000000000001e-05 9.992000000000001e-05 0.99920064 9.992000000000001e-05 9.992000000000001e-05 9.992000000000001e-05 9.992000000000001e-05 9.992000000000001e-05 9.992000000000001e-05 9.992000000000001e-05 9.992000000000001e-05 9.992000000000001e-05 0.99920064 9.992000000000001e-05 9.992000000000001e-05 9.992000000000001e-05 9.992000000000001e-05 9.992000000000001e-05 9.992000000000001e-05 9.992000000000001e-05 9.992000000000001e-05 9.992000000000001e-05 0.99920064 9.992000000000001e-05 9.992000000000001e-05 9.992000000000001e-05 9.992000000000001e-05 9.992000000000001e-05 9.992000000000001e-05 9.992000000000001e-05 9.992000000000001e-05 9.992000000000001e-05 0.99920064 9.992000000000001e-05 9.992000000000001e-05 9.992000000000001e-05 9.992000000000001e-05 9.992000000000001e-05 9.992000000000001e-05 9.992000000000001e-05 9.992000000000001e-05 0.99920064 9.993000099930002e-05 0.4996502449965025 0.4996502449965025 9.993000099930002e-05 9.993000099930002e-05 9.993000099930002e-05 9.993000099930002e-05 9.993000099930002e-05 9.993000099930002e-05 9.993000099930002e-05 9.993000099930002e-05 0.4996502449965025 0.4996502449965025 9.993000099930002e-05 9.993000099930002e-05 9.993000099930002e-05 9.993000099930002e-05 9.993000099930002e-05 9.993000099930002e-05 9.993000099930002e-05 9.993000099930002e-05 0.4996502449965025 0.4996502449965025 9.993000099930002e-05 9.993000099930002e-05 9.993000099930002e-05 9.993000099930002e-05 9.993000099930002e-05 9.993000099930002e-05 9.993000099930002e-05 9.993000099930002e-05 0.4996502449965025 0.4996502449965025 9.993000099930002e-05 9.993000099930002e-05 9.993000099930002e-05 9.993000099930002e-05 9.993000099930002e-05 9.993000099930002e-05 9.993000099930002e-05 9.993000099930002e-05 0.4996502449965025 0.4996502449965025 9.993000099930002e-05 9.993000099930002e-05 9.993000099929999e-05 9.993000099929999e-05 9.993000099929999e-05 9.993000099929999e-05 9.993000099929999e-05 9.993000099929999e-05 0.4996502449965024 0.4996502449965024 9.993000099929999e-05 9.993000099929999e-05 9.993000099929999e-05 9.993000099929999e-05 9.993000099929999e-05 9.993000099929999e-05 9.993000099929999e-05 9.993000099929999e-05 0.4996502449965024 0.4996502449965024 9.992000000000001e-05 9.992000000000001e-05 9.992000000000001e-05 9.992000000000001e-05 9.992000000000001e-05 9.992000000000001e-05 9.992000000000001e-05 9.992000000000001e-05 0.99920064 9.991999999999998e-05 0.9992006399999998 9.991999999999998e-05 9.991999999999998e-05 9.991999999999998e-05 9.991999999999998e-05 9.991999999999998e-05 9.991999999999998e-05 9.991999999999998e-05 9.992000000000001e-05 9.992000000000001e-05 0.99920064 9.992000000000001e-05 9.992000000000001e-05 9.992000000000001e-05 9.992000000000001e-05 9.992000000000001e-05 9.992000000000001e-05 9.992000000000001e-05 9.992000000000001e-05 9.992000000000001e-05 0.99920064 9.992000000000001e-05 9.992000000000001e-05 9.992000000000001e-05 9.992000000000001e-05 9.992000000000001e-05 9.992000000000001e-05 9.992000000000001e-05 9.992000000000001e-05 9.992000000000001e-05 0.99920064 9.992000000000001e-05 9.992000000000001e-05 9.992000000000001e-05 9.992000000000001e-05 9.992000000000001e-05 9.992000000000001e-05 9.992000000000001e-05 9.992000000000001e-05 9.992000000000001e-05 0.99920064 9.992000000000001e-05 9.992000000000001e-05 9.992000000000001e-05 9.992000000000001e-05 9.992000000000001e-05 9.992000000000001e-05 9.992000000000001e-05 9.992000000000001e-05 9.992000000000001e-05 0.99920064 9.992000000000001e-05 9.992000000000001e-05 9.992000000000001e-05 9.992000000000001e-05 9.992000000000001e-05 9.992000000000001e-05 9.992000000000001e-05 9.992000000000001e-05 9.992000000000001e-05 0.99920064 9.992000000000001e-05 9.992000000000001e-05 9.992000000000001e-05 9.992000000000001e-05 9.992000000000001e-05 9.992000000000001e-05 9.992000000000001e-05 9.992000000000001e-05 9.992000000000001e-05 0.99920064 9.991999999999998e-05 0.9992006399999998 9.991999999999998e-05 9.991999999999998e-05 9.991999999999998e-05 9.991999999999998e-05 9.991999999999998e-05 9.991999999999998e-05 9.991999999999998e-05 9.992000000000001e-05 9.992000000000001e-05 0.99920064 9.992000000000001e-05 9.992000000000001e-05 9.992000000000001e-05 9.992000000000001e-05 9.992000000000001e-05 9.992000000000001e-05 9.992000000000001e-05 9.992000000000001e-05 9.992000000000001e-05 0.99920064 9.992000000000001e-05 9.992000000000001e-05 9.992000000000001e-05 9.992000000000001e-05 9.992000000000001e-05 9.992000000000001e-05 9.992000000000001e-05 9.992000000000001e-05 9.992000000000001e-05 0.99920064 9.992000000000001e-05 9.992000000000001e-05 9.992000000000001e-05 9.992000000000001e-05 9.992000000000001e-05 9.992000000000001e-05 9.992000000000001e-05 9.992000000000001e-05 9.992000000000001e-05 0.99920064 9.992000000000001e-05 9.992000000000001e-05 9.992000000000001e-05 9.992000000000001e-05 9.992000000000001e-05 9.992000000000001e-05 9.992000000000001e-05 9.992000000000001e-05 9.992000000000001e-05 0.99920064 9.992000000000001e-05 9.992000000000001e-05 9.992000000000001e-05 9.992000000000001e-05 9.992000000000001e-05 9.992000000000001e-05 9.992000000000001e-05 9.992000000000001e-05 9.992000000000001e-05 0.99920064 9.992000000000001e-05 9.992000000000001e-05 9.992000000000001e-05 9.992000000000001e-05 9.992000000000001e-05 9.992000000000001e-05 9.992000000000001e-05 9.992000000000001e-05 9.992000000000001e-05 0.99920064 0.4996502449965025 0.4996502449965025 9.993000099930002e-05 9.993000099930002e-05 9.993000099930002e-05 9.993000099930002e-05 9.993000099930002e-05 9.993000099930002e-05 9.993000099930002e-05 9.993000099930002e-05 0.4996502449965025 0.4996502449965025 9.993000099930002e-05 9.993000099930002e-05 9.993000099930002e-05 9.993000099930002e-05 9.993000099930002e-05 9.993000099930002e-05 9.993000099930002e-05 9.993000099930002e-05 0.4996502449965025 0.4996502449965025 9.993000099930002e-05 9.993000099930002e-05 9.993000099930002e-05 9.993000099930002e-05 9.993000099930002e-05 9.993000099930002e-05 9.993000099930002e-05 9.993000099930002e-05 0.4996502449965025 0.4996502449965025 9.993000099930002e-05 9.993000099930002e-05 9.993000099930002e-05 9.993000099930002e-05 9.993000099930002e-05 9.993000099930002e-05 9.993000099930002e-05 9.993000099930002e-05 0.4996502449965025 0.4996502449965025 9.993000099930002e-05 9.993000099930002e-05 9.993000099930002e-05 9.993000099930002e-05 9.993000099930002e-05 9.993000099930002e-05 9.993000099930002e-05 9.993000099930002e-05 0.4996502449965025 0.4996502449965025 9.993000099930002e-05 9.993000099930002e-05 9.993000099929999e-05 9.993000099929999e-05 9.993000099929999e-05 9.993000099929999e-05 9.993000099929999e-05 9.993000099929999e-05 0.4996502449965024 0.4996502449965024 9.993000099929999e-05 9.992000000000001e-05 9.992000000000001e-05 9.992000000000001e-05 9.992000000000001e-05 9.992000000000001e-05 9.992000000000001e-05 9.992000000000001e-05 9.992000000000001e-05 0.99920064 0.9992006399999998 9.991999999999998e-05 9.991999999999998e-05 9.991999999999998e-05 9.991999999999998e-05 9.991999999999998e-05 9.991999999999998e-05 9.991999999999998e-05 9.991999999999998e-05 9.991999999999998e-05 0.9992006399999998 9.991999999999998e-05 9.991999999999998e-05 9.991999999999998e-05 9.991999999999998e-05 9.991999999999998e-05 9.991999999999998e-05 9.991999999999998e-05 9.992000000000001e-05 9.992000000000001e-05 0.99920064 9.992000000000001e-05 9.992000000000001e-05 9.992000000000001e-05 9.992000000000001e-05 9.992000000000001e-05 9.992000000000001e-05 9.992000000000001e-05 9.992000000000001e-05 9.992000000000001e-05 0.99920064 9.992000000000001e-05 9.992000000000001e-05 9.992000000000001e-05 9.992000000000001e-05 9.992000000000001e-05 9.992000000000001e-05 9.992000000000001e-05 9.992000000000001e-05 9.992000000000001e-05 0.99920064 9.992000000000001e-05 9.992000000000001e-05 9.992000000000001e-05 9.992000000000001e-05 9.992000000000001e-05 9.992000000000001e-05 9.992000000000001e-05 9.992000000000001e-05 9.992000000000001e-05 0.99920064 9.992000000000001e-05 9.992000000000001e-05 9.992000000000001e-05 9.992000000000001e-05 9.992000000000001e-05 9.992000000000001e-05 9.992000000000001e-05 9.992000000000001e-05 9.992000000000001e-05 0.99920064 9.992000000000001e-05 9.992000000000001e-05 9.992000000000001e-05 9.992000000000001e-05 9.992000000000001e-05 9.992000000000001e-05 9.992000000000001e-05 9.992000000000001e-05 9.992000000000001e-05 0.99920064 9.992000000000001e-05 0.9992006399999998 9.991999999999998e-05 9.991999999999998e-05 9.991999999999998e-05 9.991999999999998e-05 9.991999999999998e-05 9.991999999999998e-05 9.991999999999998e-05 9.991999999999998e-05 9.991999999999998e-05 0.9992006399999998 9.991999999999998e-05 9.991999999999998e-05 9.991999999999998e-05 9.991999999999998e-05 9.991999999999998e-05 9.991999999999998e-05 9.991999999999998e-05 9.992000000000001e-05 9.992000000000001e-05 0.99920064 9.992000000000001e-05 9.992000000000001e-05 9.992000000000001e-05 9.992000000000001e-05 9.992000000000001e-05 9.992000000000001e-05 9.992000000000001e-05 9.992000000000001e-05 9.992000000000001e-05 0.99920064 9.992000000000001e-05 9.992000000000001e-05 9.992000000000001e-05 9.992000000000001e-05 9.992000000000001e-05 9.992000000000001e-05 9.992000000000001e-05 9.992000000000001e-05 9.992000000000001e-05 0.99920064 9.992000000000001e-05 9.992000000000001e-05 9.992000000000001e-05 9.992000000000001e-05 9.992000000000001e-05 9.992000000000001e-05 9.992000000000001e-05 9.992000000000001e-05 9.992000000000001e-05 0.99920064 9.992000000000001e-05 9.992000000000001e-05 9.992000000000001e-05 9.992000000000001e-05 9.992000000000001e-05 9.992000000000001e-05 9.992000000000001e-05 9.992000000000001e-05 9.992000000000001e-05 0.99920064 9.992000000000001e-05 9.992000000000001e-05 9.992000000000001e-05 9.992000000000001e-05 9.992000000000001e-05 9.992000000000001e-05 9.992000000000001e-05 9.992000000000001e-05 9.992000000000001e-05 0.99920064 9.992000000000001e-05 9.992000000000001e-05 9.992000000000001e-05 9.992000000000001e-05 9.992000000000001e-05 0.99920064 9.992000000000001e-05 9.992000000000001e-05 9.992000000000001e-05 9.992000000000001e-05 9.992000000000001e-05 9.992000000000001e-05 9.992000000000001e-05 9.992000000000001e-05 9.992000000000001e-05 0.99920064 9.992000000000001e-05 9.992000000000001e-05 9.992000000000001e-05 9.992000000000001e-05 9.992000000000001e-05 9.992000000000001e-05 9.992000000000001e-05 9.992000000000001e-05 9.992000000000001e-05 0.99920064 9.992000000000001e-05 9.992000000000001e-05 9.992000000000001e-05 9.992000000000001e-05 9.992000000000001e-05 9.992000000000001e-05 9.992000000000001e-05 9.992000000000001e-05 9.992000000000001e-05 0.99920064 9.992000000000001e-05 9.992000000000001e-05 9.992000000000001e-05 9.992000000000001e-05 9.992000000000001e-05 9.992000000000001e-05 9.992000000000001e-05 9.992000000000001e-05 9.992000000000001e-05 0.99920064 9.992000000000001e-05 9.992000000000001e-05 9.992000000000001e-05 9.992000000000001e-05 9.992000000000001e-05 9.992000000000001e-05 9.992000000000001e-05 9.992000000000001e-05 0.99920064 9.992000000000001e-05 9.992000000000001e-05 9.992000000000001e-05 9.992000000000001e-05 9.992000000000001e-05 9.992000000000001e-05 9.992000000000001e-05 9.992000000000001e-05 0.99920064 9.992000000000001e-05 9.992000000000001e-05 9.992000000000001e-05 9.992000000000001e-05 9.992000000000001e-05 9.992000000000001e-05 9.992000000000001e-05 9.992000000000001e-05 0.99920064 9.992000000000001e-05 9.992000000000001e-05 9.992000000000001e-05 9.992000000000001e-05 0.99920064 9.992000000000001e-05 9.992000000000001e-05 9.992000000000001e-05 9.992000000000001e-05 9.992000000000001e-05 9.992000000000001e-05 9.992000000000001e-05 9.992000000000001e-05 9.992000000000001e-05 0.99920064 9.992000000000001e-05 9.992000000000001e-05 9.992000000000001e-05 9.992000000000001e-05 9.992000000000001e-05 9.992000000000001e-05 9.992000000000001e-05 9.992000000000001e-05 9.992000000000001e-05 0.99920064 9.992000000000001e-05 9.992000000000001e-05 9.992000000000001e-05 9.992000000000001e-05 9.992000000000001e-05 9.992000000000001e-05 9.992000000000001e-05 9.992000000000001e-05 9.992000000000001e-05 0.99920064 9.992000000000001e-05 9.992000000000001e-05 9.992000000000001e-05 9.992000000000001e-05 9.992000000000001e-05 9.992000000000001e-05 9.992000000000001e-05 9.992000000000001e-05 9.992000000000001e-05 0.99920064 9.992000000000001e-05 9.992000000000001e-05 9.992000000000001e-05 9.992000000000001e-05 9.992000000000001e-05 9.992000000000001e-05 9.992000000000001e-05 9.992000000000001e-05 0.99920064 9.992000000000001e-05 9.992000000000001e-05 9.992000000000001e-05 9.992000000000001e-05 9.992000000000001e-05 9.992000000000001e-05 9.992000000000001e-05 9.992000000000001e-05 0.99920064 9.992000000000001e-05 9.992000000000001e-05 9.992000000000001e-05 9.992000000000001e-05 9.992000000000001e-05 9.992000000000001e-05 9.992000000000001e-05 9.992000000000001e-05 0.99920064 9.993000099930002e-05 9.993000099930002e-05 9.993000099930002e-05 0.4996502449965025 0.4996502449965025 9.993000099930002e-05 9.993000099930002e-05 9.993000099930002e-05 9.993000099930002e-05 9.993000099930002e-05 9.993000099930002e-05 9.993000099930002e-05 9.993000099930002e-05 0.4996502449965025 0.4996502449965025 9.993000099930002e-05 9.993000099930002e-05 9.993000099930002e-05 9.993000099930002e-05 9.993000099930002e-05 9.993000099930002e-05 9.993000099930002e-05 9.993000099930002e-05 0.4996502449965025 0.4996502449965025 9.993000099930002e-05 9.993000099930002e-05 9.993000099929999e-05 9.993000099929999e-05 9.993000099929999e-05 9.993000099929999e-05 9.993000099929999e-05 9.993000099929999e-05 0.4996502449965024 0.4996502449965024 9.993000099929999e-05 9.993000099929999e-05 9.993000099929999e-05 9.993000099929999e-05 9.993000099929999e-05 9.993000099929999e-05 9.993000099929999e-05 9.993000099929999e-05 0.4996502449965024 0.4996502449965024 9.992000000000001e-05 9.992000000000001e-05 9.992000000000001e-05 9.992000000000001e-05 9.992000000000001e-05 9.992000000000001e-05 9.992000000000001e-05 9.992000000000001e-05 0.99920064 9.992000000000001e-05 9.992000000000001e-05 9.992000000000001e-05 9.992000000000001e-05 9.992000000000001e-05 9.992000000000001e-05 9.992000000000001e-05 9.992000000000001e-05 0.99920064 9.992000000000001e-05 9.992000000000001e-05 9.992000000000001e-05 9.992000000000001e-05 9.992000000000001e-05 9.992000000000001e-05 9.992000000000001e-05 9.992000000000001e-05 0.99920064 9.992000000000001e-05 9.992000000000001e-05 9.992000000000001e-05 0.99920064 9.992000000000001e-05 9.992000000000001e-05 9.992000000000001e-05 9.992000000000001e-05 9.992000000000001e-05 9.992000000000001e-05 9.992000000000001e-05 9.992000000000001e-05 9.992000000000001e-05 0.99920064 9.992000000000001e-05 9.992000000000001e-05 9.992000000000001e-05 9.992000000000001e-05 9.992000000000001e-05 9.992000000000001e-05 9.992000000000001e-05 9.992000000000001e-05 9.992000000000001e-05 0.99920064 9.992000000000001e-05 9.992000000000001e-05 9.992000000000001e-05 9.992000000000001e-05 9.992000000000001e-05 9.992000000000001e-05 9.992000000000001e-05 9.992000000000001e-05 9.992000000000001e-05 0.99920064 9.992000000000001e-05 9.992000000000001e-05 9.992000000000001e-05 9.992000000000001e-05 9.992000000000001e-05 9.992000000000001e-05 9.992000000000001e-05 9.992000000000001e-05 9.992000000000001e-05 0.99920064 9.992000000000001e-05 9.992000000000001e-05 9.992000000000001e-05 9.992000000000001e-05 9.992000000000001e-05 9.992000000000001e-05 9.992000000000001e-05 9.992000000000001e-05 9.992000000000001e-05 0.99920064 9.992000000000001e-05 9.992000000000001e-05 9.992000000000001e-05 9.992000000000001e-05 9.992000000000001e-05 9.992000000000001e-05 9.992000000000001e-05 9.992000000000001e-05 0.99920064 9.992000000000001e-05 9.992000000000001e-05 9.992000000000001e-05 9.992000000000001e-05 9.992000000000001e-05 9.992000000000001e-05 9.992000000000001e-05 9.992000000000001e-05 0.99920064 9.992000000000001e-05 9.992000000000001e-05 9.992000000000001e-05 0.99920064 9.992000000000001e-05 9.992000000000001e-05 9.992000000000001e-05 9.992000000000001e-05 9.992000000000001e-05 9.992000000000001e-05 9.992000000000001e-05 9.992000000000001e-05 9.992000000000001e-05 0.99920064 9.992000000000001e-05 9.992000000000001e-05 9.992000000000001e-05 9.992000000000001e-05 9.992000000000001e-05 9.992000000000001e-05 9.992000000000001e-05 9.992000000000001e-05 9.992000000000001e-05 0.99920064 9.992000000000001e-05 9.992000000000001e-05 9.992000000000001e-05 9.992000000000001e-05 9.992000000000001e-05 9.992000000000001e-05 9.992000000000001e-05 9.992000000000001e-05 9.992000000000001e-05 0.99920064 9.992000000000001e-05 9.992000000000001e-05 9.992000000000001e-05 9.992000000000001e-05 9.992000000000001e-05 9.992000000000001e-05 9.992000000000001e-05 9.992000000000001e-05 9.992000000000001e-05 0.99920064 9.992000000000001e-05 9.992000000000001e-05 9.992000000000001e-05 9.992000000000001e-05 9.992000000000001e-05 9.992000000000001e-05 9.992000000000001e-05 9.992000000000001e-05 9.992000000000001e-05 0.99920064 9.992000000000001e-05 9.992000000000001e-05 9.992000000000001e-05 9.992000000000001e-05 9.992000000000001e-05 9.992000000000001e-05 9.992000000000001e-05 9.992000000000001e-05 0.99920064 9.992000000000001e-05 9.992000000000001e-05 9.992000000000001e-05 9.992000000000001e-05 9.992000000000001e-05 9.992000000000001e-05 9.992000000000001e-05 9.992000000000001e-05 0.99920064 9.993000099930002e-05 9.993000099930002e-05 0.4996502449965025 0.4996502449965025 9.993000099930002e-05 9.993000099930002e-05 9.993000099930002e-05 9.993000099930002e-05 9.993000099930002e-05 9.993000099930002e-05 9.993000099930002e-05 9.993000099930002e-05 0.4996502449965025 0.4996502449965025 9.993000099930002e-05 9.993000099930002e-05 9.993000099930002e-05 9.993000099930002e-05 9.993000099930002e-05 9.993000099930002e-05 9.993000099930002e-05 9.993000099930002e-05 0.4996502449965025 0.4996502449965025 9.993000099930002e-05 9.993000099930002e-05 9.993000099930002e-05 9.993000099930002e-05 9.993000099930002e-05 9.993000099930002e-05 9.993000099930002e-05 9.993000099930002e-05 0.4996502449965025 0.4996502449965025 9.993000099930002e-05 9.993000099930002e-05 9.993000099929999e-05 9.993000099929999e-05 9.993000099929999e-05 9.993000099929999e-05 9.993000099929999e-05 9.993000099929999e-05 0.4996502449965024 0.4996502449965024 9.993000099929999e-05 9.993000099929999e-05 9.993000099929999e-05 9.993000099929999e-05 9.993000099929999e-05 9.993000099929999e-05 9.993000099929999e-05 9.993000099929999e-05 0.4996502449965024 0.4996502449965024 9.992000000000001e-05 9.992000000000001e-05 9.992000000000001e-05 9.992000000000001e-05 9.992000000000001e-05 9.992000000000001e-05 9.992000000000001e-05 9.992000000000001e-05 0.99920064 9.992000000000001e-05 9.992000000000001e-05 9.992000000000001e-05 9.992000000000001e-05 9.992000000000001e-05 9.992000000000001e-05 9.992000000000001e-05 9.992000000000001e-05 0.99920064 9.992000000000001e-05 9.992000000000001e-05 0.99920064 9.992000000000001e-05 9.992000000000001e-05 9.992000000000001e-05 9.992000000000001e-05 9.992000000000001e-05 9.992000000000001e-05 9.992000000000001e-05 9.992000000000001e-05 9.992000000000001e-05 0.99920064 9.992000000000001e-05 9.992000000000001e-05 9.992000000000001e-05 9.992000000000001e-05 9.992000000000001e-05 9.992000000000001e-05 9.992000000000001e-05 9.992000000000001e-05 9.992000000000001e-05 0.99920064 9.992000000000001e-05 9.992000000000001e-05 9.992000000000001e-05 9.992000000000001e-05 9.992000000000001e-05 9.992000000000001e-05 9.992000000000001e-05 9.992000000000001e-05 9.992000000000001e-05 0.99920064 9.992000000000001e-05 9.992000000000001e-05 9.992000000000001e-05 9.992000000000001e-05 9.992000000000001e-05 9.992000000000001e-05 9.992000000000001e-05 9.992000000000001e-05 9.992000000000001e-05 0.99920064 9.992000000000001e-05 9.992000000000001e-05 9.992000000000001e-05 9.992000000000001e-05 9.992000000000001e-05 9.992000000000001e-05 9.992000000000001e-05 9.992000000000001e-05 9.992000000000001e-05 0.99920064 9.992000000000001e-05 9.992000000000001e-05 9.992000000000001e-05 9.992000000000001e-05 9.992000000000001e-05 9.992000000000001e-05 9.992000000000001e-05 9.992000000000001e-05 9.992000000000001e-05 0.99920064 9.992000000000001e-05 9.992000000000001e-05 9.992000000000001e-05 9.992000000000001e-05 9.992000000000001e-05 9.992000000000001e-05 9.992000000000001e-05 9.992000000000001e-05 0.99920064 9.992000000000001e-05 9.992000000000001e-05 0.99920064 9.992000000000001e-05 9.992000000000001e-05 9.992000000000001e-05 9.992000000000001e-05 9.992000000000001e-05 9.992000000000001e-05 9.992000000000001e-05 9.992000000000001e-05 9.992000000000001e-05 0.99920064 9.992000000000001e-05 9.992000000000001e-05 9.992000000000001e-05 9.992000000000001e-05 9.992000000000001e-05 9.992000000000001e-05 9.992000000000001e-05 9.992000000000001e-05 9.992000000000001e-05 0.99920064 9.992000000000001e-05 9.992000000000001e-05 9.992000000000001e-05 9.992000000000001e-05 9.992000000000001e-05 9.992000000000001e-05 9.992000000000001e-05 9.992000000000001e-05 9.992000000000001e-05 0.99920064 9.992000000000001e-05 9.992000000000001e-05 9.992000000000001e-05 9.992000000000001e-05 9.992000000000001e-05 9.992000000000001e-05 9.992000000000001e-05 9.992000000000001e-05 9.992000000000001e-05 0.99920064 9.992000000000001e-05 9.992000000000001e-05 9.992000000000001e-05 9.992000000000001e-05 9.992000000000001e-05 9.992000000000001e-05 9.992000000000001e-05 9.992000000000001e-05 9.992000000000001e-05 0.99920064 9.992000000000001e-05 9.992000000000001e-05 9.992000000000001e-05 9.992000000000001e-05 9.992000000000001e-05 9.992000000000001e-05 9.992000000000001e-05 9.992000000000001e-05 9.992000000000001e-05 0.99920064 9.992000000000001e-05 9.992000000000001e-05 9.992000000000001e-05 9.992000000000001e-05 9.992000000000001e-05 9.992000000000001e-05 9.992000000000001e-05 9.992000000000001e-05 0.99920064 9.993000099930002e-05 0.4996502449965025 0.4996502449965025 9.993000099930002e-05 9.993000099930002e-05 9.993000099930002e-05 9.993000099930002e-05 9.993000099930002e-05 9.993000099930002e-05 9.993000099930002e-05 9.993000099930002e-05 0.4996502449965025 0.4996502449965025 9.993000099930002e-05 9.993000099930002e-05 9.993000099930002e-05 9.993000099930002e-05 9.993000099930002e-05 9.993000099930002e-05 9.993000099930002e-05 9.993000099930002e-05 0.4996502449965025 0.4996502449965025 9.993000099930002e-05 9.993000099930002e-05 9.993000099930002e-05 9.993000099930002e-05 9.993000099930002e-05 9.993000099930002e-05 9.993000099930002e-05 9.993000099930002e-05 0.4996502449965025 0.4996502449965025 9.993000099930002e-05 9.993000099930002e-05 9.993000099930002e-05 9.993000099930002e-05 9.993000099930002e-05 9.993000099930002e-05 9.993000099930002e-05 9.993000099930002e-05 0.4996502449965025 0.4996502449965025 9.993000099930002e-05 9.993000099930002e-05 9.993000099929999e-05 9.993000099929999e-05 9.993000099929999e-05 9.993000099929999e-05 9.993000099929999e-05 9.993000099929999e-05 0.4996502449965024 0.4996502449965024 9.993000099929999e-05 9.993000099929999e-05 9.993000099929999e-05 9.993000099929999e-05 9.993000099929999e-05 9.993000099929999e-05 9.993000099929999e-05 9.993000099929999e-05 0.4996502449965024 0.4996502449965024 9.992000000000001e-05 9.992000000000001e-05 9.992000000000001e-05 9.992000000000001e-05 9.992000000000001e-05 9.992000000000001e-05 9.992000000000001e-05 9.992000000000001e-05 0.99920064 9.991999999999998e-05 0.9992006399999998 9.991999999999998e-05 9.991999999999998e-05 9.991999999999998e-05 9.991999999999998e-05 9.991999999999998e-05 9.991999999999998e-05 9.991999999999998e-05 9.992000000000001e-05 9.992000000000001e-05 0.99920064 9.992000000000001e-05 9.992000000000001e-05 9.992000000000001e-05 9.992000000000001e-05 9.992000000000001e-05 9.992000000000001e-05 9.992000000000001e-05 9.992000000000001e-05 9.992000000000001e-05 0.99920064 9.992000000000001e-05 9.992000000000001e-05 9.992000000000001e-05 9.992000000000001e-05 9.992000000000001e-05 9.992000000000001e-05 9.992000000000001e-05 9.992000000000001e-05 9.992000000000001e-05 0.99920064 9.992000000000001e-05 9.992000000000001e-05 9.992000000000001e-05 9.992000000000001e-05 9.992000000000001e-05 9.992000000000001e-05 9.992000000000001e-05 9.992000000000001e-05 9.992000000000001e-05 0.99920064 9.992000000000001e-05 9.992000000000001e-05 9.992000000000001e-05 9.992000000000001e-05 9.992000000000001e-05 9.992000000000001e-05 9.992000000000001e-05 9.992000000000001e-05 9.992000000000001e-05 0.99920064 9.992000000000001e-05 9.992000000000001e-05 9.992000000000001e-05 9.992000000000001e-05 9.992000000000001e-05 9.992000000000001e-05 9.992000000000001e-05 9.992000000000001e-05 9.992000000000001e-05 0.99920064 9.992000000000001e-05 9.992000000000001e-05 9.992000000000001e-05 9.992000000000001e-05 9.992000000000001e-05 9.992000000000001e-05 9.992000000000001e-05 9.992000000000001e-05 9.992000000000001e-05 0.99920064 9.991999999999998e-05 0.9992006399999998 9.991999999999998e-05 9.991999999999998e-05 9.991999999999998e-05 9.991999999999998e-05 9.991999999999998e-05 9.991999999999998e-05 9.991999999999998e-05 9.992000000000001e-05 9.992000000000001e-05 0.99920064 9.992000000000001e-05 9.992000000000001e-05 9.992000000000001e-05 9.992000000000001e-05 9.992000000000001e-05 9.992000000000001e-05 9.992000000000001e-05 9.992000000000001e-05 9.992000000000001e-05 0.99920064 9.992000000000001e-05 9.992000000000001e-05 9.992000000000001e-05 9.992000000000001e-05 9.992000000000001e-05 9.992000000000001e-05 9.992000000000001e-05 9.992000000000001e-05 9.992000000000001e-05 0.99920064 9.992000000000001e-05 9.992000000000001e-05 9.992000000000001e-05 9.992000000000001e-05 9.992000000000001e-05 9.992000000000001e-05 9.992000000000001e-05 9.992000000000001e-05 9.992000000000001e-05 0.99920064 9.992000000000001e-05 9.992000000000001e-05 9.992000000000001e-05 9.992000000000001e-05 9.992000000000001e-05 9.992000000000001e-05 9.992000000000001e-05 9.992000000000001e-05 9.992000000000001e-05 0.99920064 9.992000000000001e-05 9.992000000000001e-05 9.992000000000001e-05 9.992000000000001e-05 9.992000000000001e-05 9.992000000000001e-05 9.992000000000001e-05 9.992000000000001e-05 9.992000000000001e-05 0.99920064 9.992000000000001e-05 9.992000000000001e-05 9.992000000000001e-05 9.992000000000001e-05 9.992000000000001e-05 9.992000000000001e-05 9.992000000000001e-05 9.992000000000001e-05 9.992000000000001e-05 0.99920064 9.992000000000001e-05 9.992000000000001e-05 9.992000000000001e-05 9.992000000000001e-05 9.992000000000001e-05 0.99920064 9.992000000000001e-05 9.992000000000001e-05 9.992000000000001e-05 9.992000000000001e-05 9.992000000000001e-05 9.992000000000001e-05 9.992000000000001e-05 9.992000000000001e-05 9.992000000000001e-05 0.99920064 9.992000000000001e-05 9.992000000000001e-05 9.992000000000001e-05 9.992000000000001e-05 9.992000000000001e-05 9.992000000000001e-05 9.992000000000001e-05 9.992000000000001e-05 9.992000000000001e-05 0.99920064 9.992000000000001e-05 9.992000000000001e-05 9.992000000000001e-05 9.992000000000001e-05 9.992000000000001e-05 9.992000000000001e-05 9.992000000000001e-05 9.992000000000001e-05 9.992000000000001e-05 0.99920064 9.992000000000001e-05 9.992000000000001e-05 9.992000000000001e-05 9.992000000000001e-05 9.992000000000001e-05 9.992000000000001e-05 9.992000000000001e-05 9.992000000000001e-05 0.99920064 9.992000000000001e-05 9.992000000000001e-05 9.992000000000001e-05 9.992000000000001e-05 9.992000000000001e-05 9.992000000000001e-05 9.992000000000001e-05 9.992000000000001e-05 0.99920064 9.992000000000001e-05 9.992000000000001e-05 9.992000000000001e-05 9.992000000000001e-05 9.992000000000001e-05 9.992000000000001e-05 9.992000000000001e-05 9.992000000000001e-05 0.99920064 9.992000000000001e-05 9.992000000000001e-05 9.992000000000001e-05 9.992000000000001e-05 9.992000000000001e-05 9.992000000000001e-05 9.992000000000001e-05 9.992000000000001e-05 0.99920064 9.992000000000001e-05 9.992000000000001e-05 9.992000000000001e-05 9.992000000000001e-05 9.992000000000001e-05 0.99920064 9.992000000000001e-05 9.992000000000001e-05 9.992000000000001e-05 9.992000000000001e-05 9.992000000000001e-05 9.992000000000001e-05 9.992000000000001e-05 9.992000000000001e-05 9.992000000000001e-05 0.99920064 9.992000000000001e-05 9.992000000000001e-05 9.992000000000001e-05 9.992000000000001e-05 9.992000000000001e-05 9.992000000000001e-05 9.992000000000001e-05 9.992000000000001e-05 9.992000000000001e-05 0.99920064 9.992000000000001e-05 9.992000000000001e-05 9.992000000000001e-05 9.992000000000001e-05 9.992000000000001e-05 9.992000000000001e-05 9.992000000000001e-05 9.992000000000001e-05 9.992000000000001e-05 0.99920064 9.992000000000001e-05 9.992000000000001e-05 9.992000000000001e-05 9.992000000000001e-05 9.992000000000001e-05 9.992000000000001e-05 9.992000000000001e-05 9.992000000000001e-05 0.99920064 9.992000000000001e-05 9.992000000000001e-05 9.992000000000001e-05 9.992000000000001e-05 9.992000000000001e-05 9.992000000000001e-05 9.992000000000001e-05 9.992000000000001e-05 0.99920064 9.992000000000001e-05 9.992000000000001e-05 9.992000000000001e-05 9.992000000000001e-05 9.992000000000001e-05 9.992000000000001e-05 9.992000000000001e-05 9.992000000000001e-05 0.99920064 9.992000000000001e-05 9.992000000000001e-05 9.992000000000001e-05 9.992000000000001e-05 9.992000000000001e-05 9.992000000000001e-05 9.992000000000001e-05 9.992000000000001e-05 0.99920064 9.993000099930002e-05 9.993000099930002e-05 9.993000099930002e-05 9.993000099930002e-05 0.4996502449965025 0.4996502449965025 9.993000099930002e-05 9.993000099930002e-05 9.993000099930002e-05 9.993000099930002e-05 9.993000099930002e-05 9.993000099930002e-05 9.993000099930002e-05 9.993000099930002e-05 0.4996502449965025 0.4996502449965025 9.993000099930002e-05 9.993000099930002e-05 9.993000099929999e-05 9.993000099929999e-05 9.993000099929999e-05 9.993000099929999e-05 9.993000099929999e-05 9.993000099929999e-05 0.4996502449965024 0.4996502449965024 9.993000099929999e-05 9.993000099929999e-05 9.993000099929999e-05 9.993000099929999e-05 9.993000099929999e-05 9.993000099929999e-05 9.993000099929999e-05 9.993000099929999e-05 0.4996502449965024 0.4996502449965024 9.992000000000001e-05 9.992000000000001e-05 9.992000000000001e-05 9.992000000000001e-05 9.992000000000001e-05 9.992000000000001e-05 9.992000000000001e-05 9.992000000000001e-05 0.99920064 9.992000000000001e-05 9.992000000000001e-05 9.992000000000001e-05 9.992000000000001e-05 9.992000000000001e-05 9.992000000000001e-05 9.992000000000001e-05 9.992000000000001e-05 0.99920064 9.992000000000001e-05 9.992000000000001e-05 9.992000000000001e-05 9.992000000000001e-05 9.992000000000001e-05 9.992000000000001e-05 9.992000000000001e-05 9.992000000000001e-05 0.99920064 9.992000000000001e-05 9.992000000000001e-05 9.992000000000001e-05 9.992000000000001e-05 9.992000000000001e-05 9.992000000000001e-05 9.992000000000001e-05 9.992000000000001e-05 0.99920064 9.992000000000001e-05 9.992000000000001e-05 9.992000000000001e-05 9.992000000000001e-05 0.99920064 9.992000000000001e-05 9.992000000000001e-05 9.992000000000001e-05 9.992000000000001e-05 9.992000000000001e-05 9.992000000000001e-05 9.992000000000001e-05 9.992000000000001e-05 9.992000000000001e-05 0.99920064 9.992000000000001e-05 9.992000000000001e-05 9.992000000000001e-05 9.992000000000001e-05 9.992000000000001e-05 9.992000000000001e-05 9.992000000000001e-05 9.992000000000001e-05 9.992000000000001e-05 0.99920064 9.992000000000001e-05 9.992000000000001e-05 9.992000000000001e-05 9.992000000000001e-05 9.992000000000001e-05 9.992000000000001e-05 9.992000000000001e-05 9.992000000000001e-05 9.992000000000001e-05 0.99920064 9.992000000000001e-05 9.992000000000001e-05 9.992000000000001e-05 9.992000000000001e-05 9.992000000000001e-05 9.992000000000001e-05 9.992000000000001e-05 9.992000000000001e-05 9.992000000000001e-05 0.99920064 9.992000000000001e-05 9.992000000000001e-05 9.992000000000001e-05 9.992000000000001e-05 9.992000000000001e-05 9.992000000000001e-05 9.992000000000001e-05 9.992000000000001e-05 0.99920064 9.992000000000001e-05 9.992000000000001e-05 9.992000000000001e-05 9.992000000000001e-05 9.992000000000001e-05 9.992000000000001e-05 9.992000000000001e-05 9.992000000000001e-05 0.99920064 9.992000000000001e-05 9.992000000000001e-05 9.992000000000001e-05 9.992000000000001e-05 9.992000000000001e-05 9.992000000000001e-05 9.992000000000001e-05 9.992000000000001e-05 0.99920064 9.992000000000001e-05 9.992000000000001e-05 9.992000000000001e-05 9.992000000000001e-05 0.99920064 9.992000000000001e-05 9.992000000000001e-05 9.992000000000001e-05 9.992000000000001e-05 9.992000000000001e-05 9.992000000000001e-05 9.992000000000001e-05 9.992000000000001e-05 9.992000000000001e-05 0.99920064 9.992000000000001e-05 9.992000000000001e-05 9.992000000000001e-05 9.992000000000001e-05 9.992000000000001e-05 9.992000000000001e-05 9.992000000000001e-05 9.992000000000001e-05 9.992000000000001e-05 0.99920064 9.992000000000001e-05 9.992000000000001e-05 9.992000000000001e-05 9.992000000000001e-05 9.992000000000001e-05 9.992000000000001e-05 9.992000000000001e-05 9.992000000000001e-05 9.992000000000001e-05 0.99920064 9.992000000000001e-05 9.992000000000001e-05 9.992000000000001e-05 9.992000000000001e-05 9.992000000000001e-05 9.992000000000001e-05 9.992000000000001e-05 9.992000000000001e-05 9.992000000000001e-05 0.99920064 9.992000000000001e-05 9.992000000000001e-05 9.992000000000001e-05 9.992000000000001e-05 9.992000000000001e-05 9.992000000000001e-05 9.992000000000001e-05 9.992000000000001e-05 0.99920064 9.992000000000001e-05 9.992000000000001e-05 9.992000000000001e-05 9.992000000000001e-05 9.992000000000001e-05 9.992000000000001e-05 9.992000000000001e-05 9.992000000000001e-05 0.99920064 9.992000000000001e-05 9.992000000000001e-05 9.992000000000001e-05 9.992000000000001e-05 9.992000000000001e-05 9.992000000000001e-05 9.992000000000001e-05 9.992000000000001e-05 0.99920064 9.993000099930002e-05 9.993000099930002e-05 9.993000099930002e-05 0.4996502449965025 0.4996502449965025 9.993000099930002e-05 9.993000099930002e-05 9.993000099930002e-05 9.993000099930002e-05 9.993000099930002e-05 9.993000099930002e-05 9.993000099930002e-05 9.993000099930002e-05 0.4996502449965025 0.4996502449965025 9.993000099930002e-05 9.993000099930002e-05 9.993000099930002e-05 9.993000099930002e-05 9.993000099930002e-05 9.993000099930002e-05 9.993000099930002e-05 9.993000099930002e-05 0.4996502449965025 0.4996502449965025 9.993000099930002e-05 9.993000099930002e-05 9.993000099929999e-05 9.993000099929999e-05 9.993000099929999e-05 9.993000099929999e-05 9.993000099929999e-05 9.993000099929999e-05 0.4996502449965024 0.4996502449965024 9.993000099929999e-05 9.993000099929999e-05 9.993000099929999e-05 9.993000099929999e-05 9.993000099929999e-05 9.993000099929999e-05 9.993000099929999e-05 9.993000099929999e-05 0.4996502449965024 0.4996502449965024 9.992000000000001e-05 9.992000000000001e-05 9.992000000000001e-05 9.992000000000001e-05 9.992000000000001e-05 9.992000000000001e-05 9.992000000000001e-05 9.992000000000001e-05 0.99920064 9.992000000000001e-05 9.992000000000001e-05 9.992000000000001e-05 9.992000000000001e-05 9.992000000000001e-05 9.992000000000001e-05 9.992000000000001e-05 9.992000000000001e-05 0.99920064 9.992000000000001e-05 9.992000000000001e-05 9.992000000000001e-05 9.992000000000001e-05 9.992000000000001e-05 9.992000000000001e-05 9.992000000000001e-05 9.992000000000001e-05 0.99920064 9.992000000000001e-05 9.992000000000001e-05 9.992000000000001e-05 0.99920064 9.992000000000001e-05 9.992000000000001e-05 9.992000000000001e-05 9.992000000000001e-05 9.992000000000001e-05 9.992000000000001e-05 9.992000000000001e-05 9.992000000000001e-05 9.992000000000001e-05 0.99920064 9.992000000000001e-05 9.992000000000001e-05 9.992000000000001e-05 9.992000000000001e-05 9.992000000000001e-05 9.992000000000001e-05 9.992000000000001e-05 9.992000000000001e-05 9.992000000000001e-05 0.99920064 9.992000000000001e-05 9.992000000000001e-05 9.992000000000001e-05 9.992000000000001e-05 9.992000000000001e-05 9.992000000000001e-05 9.992000000000001e-05 9.992000000000001e-05 9.992000000000001e-05 0.99920064 9.992000000000001e-05 9.992000000000001e-05 9.992000000000001e-05 9.992000000000001e-05 9.992000000000001e-05 9.992000000000001e-05 9.992000000000001e-05 9.992000000000001e-05 9.992000000000001e-05 0.99920064 9.992000000000001e-05 9.992000000000001e-05 9.992000000000001e-05 9.992000000000001e-05 9.992000000000001e-05 9.992000000000001e-05 9.992000000000001e-05 9.992000000000001e-05 9.992000000000001e-05 0.99920064 9.992000000000001e-05 9.992000000000001e-05 9.992000000000001e-05 9.992000000000001e-05 9.992000000000001e-05 9.992000000000001e-05 9.992000000000001e-05 9.992000000000001e-05 0.99920064 0 0.125 0.125 0.125 0.125 0.125 0.125 0.125 0.125 0.4998250613405811 4.998247411966316e-05 4.998247411966316e-05 4.998247411966316e-05 0.4998250613405811 4.998247411966316e-05 4.998247411966316e-05 4.998247411966316e-05 4.998247411966316e-05 9.992000000000001e-05 9.992000000000001e-05 9.992000000000001e-05 9.992000000000001e-05 9.992000000000001e-05 0.99920064 9.992000000000001e-05 9.992000000000001e-05 9.992000000000001e-05 9.992000000000001e-05 9.992000000000001e-05 9.992000000000001e-05 9.992000000000001e-05 9.992000000000001e-05 9.992000000000001e-05 0.99920064 9.992000000000001e-05 9.992000000000001e-05 9.992000000000001e-05 9.992000000000001e-05 9.992000000000001e-05 9.992000000000001e-05 9.992000000000001e-05 9.992000000000001e-05 9.992000000000001e-05 0.99920064 9.992000000000001e-05 9.992000000000001e-05 9.992000000000001e-05 9.992000000000001e-05 9.992000000000001e-05 9.992000000000001e-05 9.992000000000001e-05 9.992000000000001e-05 9.992000000000001e-05 0.99920064 0.1111111111111111 0.1111111111111111 0.1111111111111111 0.1111111111111111 0.1111111111111111 0.1111111111111111 0.1111111111111111 0.1111111111111111 0.1111111111111111 0.9992006399999998 9.991999999999998e-05 9.991999999999998e-05 9.991999999999998e-05 9.991999999999998e-05 9.991999999999998e-05 9.991999999999998e-05 9.991999999999998e-05 9.991999999999998e-05 0.9992006399999998 9.991999999999998e-05 9.991999999999998e-05 9.991999999999998e-05 9.991999999999998e-05 9.991999999999998e-05 9.991999999999998e-05 9.991999999999998e-05 9.991999999999998e-05 0.4998250663410803 4.998747686897414e-05 4.998747686897414e-05 0.249937504398853 0.249937504398853 4.998747686897414e-05 4.998747686897414e-05 4.998747686897414e-05 4.998747686897414e-05 9.993000099930002e-05 9.993000099930002e-05 9.993000099930002e-05 9.993000099930002e-05 0.4996502449965025 0.4996502449965025 9.993000099930002e-05 9.993000099930002e-05 9.993000099930002e-05 9.993000099930002e-05 9.993000099930002e-05 9.993000099930002e-05 9.993000099930002e-05 9.993000099930002e-05 0.4996502449965025 0.4996502449965025 9.993000099930002e-05 9.993000099930002e-05 9.993000099929999e-05 9.993000099929999e-05 9.993000099929999e-05 9.993000099929999e-05 9.993000099929999e-05 9.993000099929999e-05 0.4996502449965024 0.4996502449965024 9.993000099929999e-05 9.993000099929999e-05 9.993000099929999e-05 9.993000099929999e-05 9.993000099929999e-05 9.993000099929999e-05 9.993000099929999e-05 9.993000099929999e-05 0.4996502449965024 0.4996502449965024 0.0001996804154215864 0.0001996804154215864 0.0001996804154215864 0.0001996804154215864 0.0001996804154215864 0.0001996804154215864 0.0001996804154215864 0.0001996804154215864 0.9984025566766273 0.9984027162775232 0.0001996604653095936 0.0001996604653095936 0.0001996604653095936 0.0001996604653095936 0.0001996604653095936 0.0001996604653095936 0.0001996604653095936 0.0001996604653095936 0.9992006399999998 9.991999999999998e-05 9.991999999999998e-05 9.991999999999998e-05 9.991999999999998e-05 9.991999999999998e-05 9.991999999999998e-05 9.991999999999998e-05 9.991999999999998e-05 0.4998250613405811 4.998247411966316e-05 4.998247411966316e-05 0.4998250613405811 4.998247411966316e-05 4.998247411966316e-05 4.998247411966316e-05 4.998247411966316e-05 4.998247411966316e-05 9.992000000000001e-05 9.992000000000001e-05 9.992000000000001e-05 9.992000000000001e-05 0.99920064 9.992000000000001e-05 9.992000000000001e-05 9.992000000000001e-05 9.992000000000001e-05 9.992000000000001e-05 9.992000000000001e-05 9.992000000000001e-05 9.992000000000001e-05 9.992000000000001e-05 0.99920064 9.992000000000001e-05 9.992000000000001e-05 9.992000000000001e-05 9.992000000000001e-05 9.992000000000001e-05 9.992000000000001e-05 9.992000000000001e-05 9.992000000000001e-05 9.992000000000001e-05 0.99920064 9.992000000000001e-05 9.992000000000001e-05 9.992000000000001e-05 9.992000000000001e-05 9.992000000000001e-05 9.992000000000001e-05 9.992000000000001e-05 9.992000000000001e-05 9.992000000000001e-05 0.99920064 9.992000000000001e-05 9.992000000000001e-05 9.992000000000001e-05 9.992000000000001e-05 9.992000000000001e-05 9.992000000000001e-05 9.992000000000001e-05 9.992000000000001e-05 9.992000000000001e-05 0.99920064 0.1111111111111111 0.1111111111111111 0.1111111111111111 0.1111111111111111 0.1111111111111111 0.1111111111111111 0.1111111111111111 0.1111111111111111 0.1111111111111111 0.9992006399999998 9.991999999999998e-05 9.991999999999998e-05 9.991999999999998e-05 9.991999999999998e-05 9.991999999999998e-05 9.991999999999998e-05 9.991999999999998e-05 9.991999999999998e-05 0.4998250613405811 4.998247411966316e-05 4.998247411966316e-05 0.4998250613405811 4.998247411966316e-05 4.998247411966316e-05 4.998247411966316e-05 4.998247411966316e-05 4.998247411966316e-05 9.992000000000001e-05 9.992000000000001e-05 9.992000000000001e-05 9.992000000000001e-05 0.99920064 9.992000000000001e-05 9.992000000000001e-05 9.992000000000001e-05 9.992000000000001e-05 9.992000000000001e-05 9.992000000000001e-05 9.992000000000001e-05 9.992000000000001e-05 9.992000000000001e-05 0.99920064 9.992000000000001e-05 9.992000000000001e-05 9.992000000000001e-05 9.992000000000001e-05 9.992000000000001e-05 9.992000000000001e-05 9.992000000000001e-05 9.992000000000001e-05 9.992000000000001e-05 0.99920064 9.992000000000001e-05 9.992000000000001e-05 9.992000000000001e-05 9.992000000000001e-05 9.992000000000001e-05 9.992000000000001e-05 9.992000000000001e-05 9.992000000000001e-05 9.992000000000001e-05 0.99920064 9.992000000000001e-05 9.992000000000001e-05 9.992000000000001e-05 9.992000000000001e-05 9.992000000000001e-05 9.992000000000001e-05 9.992000000000001e-05 9.992000000000001e-05 9.992000000000001e-05 0.99920064 0.1111111111111111 0.1111111111111111 0.1111111111111111 0.1111111111111111 0.1111111111111111 0.1111111111111111 0.1111111111111111 0.1111111111111111 0.1111111111111111 0.9992006399999998 9.991999999999998e-05 9.991999999999998e-05 9.991999999999998e-05 9.991999999999998e-05 9.991999999999998e-05 9.991999999999998e-05 9.991999999999998e-05 9.991999999999998e-05 0.4998250613405811 4.998247411966316e-05 4.998247411966316e-05 4.998247411966316e-05 4.998247411966316e-05 4.998247411966316e-05 4.998247411966316e-05 0.4998250613405811 4.998247411966316e-05 9.992000000000001e-05 9.992000000000001e-05 9.992000000000001e-05 9.992000000000001e-05 9.992000000000001e-05 9.992000000000001e-05 9.992000000000001e-05 9.992000000000001e-05 0.99920064 0.1111111111111111 0.1111111111111111 0.1111111111111111 0.1111111111111111 0.1111111111111111 0.1111111111111111 0.1111111111111111 0.1111111111111111 0.1111111111111111 0.9992006399999998 9.991999999999998e-05 9.991999999999998e-05 9.991999999999998e-05 9.991999999999998e-05 9.991999999999998e-05 9.991999999999998e-05 9.991999999999998e-05 9.991999999999998e-05 0.9992006399999998 9.991999999999998e-05 9.991999999999998e-05 9.991999999999998e-05 9.991999999999998e-05 9.991999999999998e-05 9.991999999999998e-05 9.991999999999998e-05 9.991999999999998e-05 0.9992006399999998 9.991999999999998e-05 9.991999999999998e-05 9.991999999999998e-05 9.991999999999998e-05 9.991999999999998e-05 9.991999999999998e-05 9.991999999999998e-05 9.991999999999998e-05 0.9992006399999998 9.991999999999998e-05 9.991999999999998e-05 9.991999999999998e-05 9.991999999999998e-05 9.991999999999998e-05 9.991999999999998e-05 9.991999999999998e-05 9.991999999999998e-05 0.9992006399999998 9.991999999999998e-05 9.991999999999998e-05 9.991999999999998e-05 9.991999999999998e-05 9.991999999999998e-05 9.991999999999998e-05 9.991999999999998e-05 9.991999999999998e-05 0.4998250613405811 4.998247411966316e-05 4.998247411966316e-05 4.998247411966316e-05 4.998247411966316e-05 4.998247411966316e-05 4.998247411966316e-05 0.4998250613405811 4.998247411966316e-05 9.992000000000001e-05 9.992000000000001e-05 9.992000000000001e-05 9.992000000000001e-05 9.992000000000001e-05 9.992000000000001e-05 9.992000000000001e-05 9.992000000000001e-05 0.99920064 0.1111111111111111 0.1111111111111111 0.1111111111111111 0.1111111111111111 0.1111111111111111 0.1111111111111111 0.1111111111111111 0.1111111111111111 0.1111111111111111 0.9992006399999998 9.991999999999998e-05 9.991999999999998e-05 9.991999999999998e-05 9.991999999999998e-05 9.991999999999998e-05 9.991999999999998e-05 9.991999999999998e-05 9.991999999999998e-05 0.9992006399999998 9.991999999999998e-05 9.991999999999998e-05 9.991999999999998e-05 9.991999999999998e-05 9.991999999999998e-05 9.991999999999998e-05 9.991999999999998e-05 9.991999999999998e-05 0.9992006399999998 9.991999999999998e-05 9.991999999999998e-05 9.991999999999998e-05 9.991999999999998e-05 9.991999999999998e-05 9.991999999999998e-05 9.991999999999998e-05 9.991999999999998e-05 0.9992006399999998 9.991999999999998e-05 9.991999999999998e-05 9.991999999999998e-05 9.991999999999998e-05 9.991999999999998e-05 9.991999999999998e-05 9.991999999999998e-05 9.991999999999998e-05 0.9992006399999998 9.991999999999998e-05 9.991999999999998e-05 9.991999999999998e-05 9.991999999999998e-05 9.991999999999998e-05 9.991999999999998e-05 9.991999999999998e-05 9.991999999999998e-05 0.4998250663410803 4.998747686897414e-05 4.998747686897414e-05 4.998747686897414e-05 4.998747686897414e-05 4.998747686897414e-05 0.249937504398853 0.249937504398853 4.998747686897414e-05 9.993000099929999e-05 9.993000099929999e-05 9.993000099929999e-05 9.993000099929999e-05 9.993000099929999e-05 9.993000099929999e-05 9.993000099929999e-05 0.4996502449965024 0.4996502449965024 0.0001996804154215864 0.0001996804154215864 0.0001996804154215864 0.0001996804154215864 0.0001996804154215864 0.0001996804154215864 0.0001996804154215864 0.0001996804154215864 0.9984025566766273 0.9984027162775232 0.0001996604653095936 0.0001996604653095936 0.0001996604653095936 0.0001996604653095936 0.0001996604653095936 0.0001996604653095936 0.0001996604653095936 0.0001996604653095936 0.9992006399999998 9.991999999999998e-05 9.991999999999998e-05 9.991999999999998e-05 9.991999999999998e-05 9.991999999999998e-05 9.991999999999998e-05 9.991999999999998e-05 9.991999999999998e-05 0.9992006399999998 9.991999999999998e-05 9.991999999999998e-05 9.991999999999998e-05 9.991999999999998e-05 9.991999999999998e-05 9.991999999999998e-05 9.991999999999998e-05 9.991999999999998e-05 0.9992006399999998 9.991999999999998e-05 9.991999999999998e-05 9.991999999999998e-05 9.991999999999998e-05 9.991999999999998e-05 9.991999999999998e-05 9.991999999999998e-05 9.991999999999998e-05 0.9992006399999998 9.991999999999998e-05 9.991999999999998e-05 9.991999999999998e-05 9.991999999999998e-05 9.991999999999998e-05 9.991999999999998e-05 9.991999999999998e-05 9.991999999999998e-05 0.4998250613405811 4.998247411966316e-05 4.998247411966316e-05 4.998247411966316e-05 4.998247411966316e-05 4.998247411966316e-05 0.4998250613405811 4.998247411966316e-05 4.998247411966316e-05 9.992000000000001e-05 9.992000000000001e-05 9.992000000000001e-05 9.992000000000001e-05 9.992000000000001e-05 9.992000000000001e-05 9.992000000000001e-05 0.99920064 9.992000000000001e-05 9.992000000000001e-05 9.992000000000001e-05 9.992000000000001e-05 9.992000000000001e-05 9.992000000000001e-05 9.992000000000001e-05 9.992000000000001e-05 9.992000000000001e-05 0.99920064 0.1111111111111111 0.1111111111111111 0.1111111111111111 0.1111111111111111 0.1111111111111111 0.1111111111111111 0.1111111111111111 0.1111111111111111 0.1111111111111111 0.9992006399999998 9.991999999999998e-05 9.991999999999998e-05 9.991999999999998e-05 9.991999999999998e-05 9.991999999999998e-05 9.991999999999998e-05 9.991999999999998e-05 9.991999999999998e-05 0.9992006399999998 9.991999999999998e-05 9.991999999999998e-05 9.991999999999998e-05 9.991999999999998e-05 9.991999999999998e-05 9.991999999999998e-05 9.991999999999998e-05 9.991999999999998e-05 0.9992006399999998 9.991999999999998e-05 9.991999999999998e-05 9.991999999999998e-05 9.991999999999998e-05 9.991999999999998e-05 9.991999999999998e-05 9.991999999999998e-05 9.991999999999998e-05 0.9992006399999998 9.991999999999998e-05 9.991999999999998e-05 9.991999999999998e-05 9.991999999999998e-05 9.991999999999998e-05 9.991999999999998e-05 9.991999999999998e-05 9.991999999999998e-05 0.4998250613405811 4.998247411966316e-05 4.998247411966316e-05 4.998247411966316e-05 4.998247411966316e-05 4.998247411966316e-05 0.4998250613405811 4.998247411966316e-05 4.998247411966316e-05 9.992000000000001e-05 9.992000000000001e-05 9.992000000000001e-05 9.992000000000001e-05 9.992000000000001e-05 9.992000000000001e-05 9.992000000000001e-05 0.99920064 9.992000000000001e-05 9.992000000000001e-05 9.992000000000001e-05 9.992000000000001e-05 9.992000000000001e-05 9.992000000000001e-05 9.992000000000001e-05 9.992000000000001e-05 9.992000000000001e-05 0.99920064 0.1111111111111111 0.1111111111111111 0.1111111111111111 0.1111111111111111 0.1111111111111111 0.1111111111111111 0.1111111111111111 0.1111111111111111 0.1111111111111111 0.9992006399999998 9.991999999999998e-05 9.991999999999998e-05 9.991999999999998e-05 9.991999999999998e-05 9.991999999999998e-05 9.991999999999998e-05 9.991999999999998e-05 9.991999999999998e-05 0.9992006399999998 9.991999999999998e-05 9.991999999999998e-05 9.991999999999998e-05 9.991999999999998e-05 9.991999999999998e-05 9.991999999999998e-05 9.991999999999998e-05 9.991999999999998e-05 0.9992006399999998 9.991999999999998e-05 9.991999999999998e-05 9.991999999999998e-05 9.991999999999998e-05 9.991999999999998e-05 9.991999999999998e-05 9.991999999999998e-05 9.991999999999998e-05 0.9992006399999998 9.991999999999998e-05 9.991999999999998e-05 9.991999999999998e-05 9.991999999999998e-05 9.991999999999998e-05 9.991999999999998e-05 9.991999999999998e-05 9.991999999999998e-05 0.4998250663410803 4.998747686897414e-05 4.998747686897414e-05 4.998747686897414e-05 4.998747686897414e-05 0.249937504398853 0.249937504398853 4.998747686897414e-05 4.998747686897414e-05 9.993000099929999e-05 9.993000099929999e-05 9.993000099929999e-05 9.993000099929999e-05 9.993000099929999e-05 9.993000099929999e-05 0.4996502449965024 0.4996502449965024 9.993000099929999e-05 9.993000099929999e-05 9.993000099929999e-05 9.993000099929999e-05 9.993000099929999e-05 9.993000099929999e-05 9.993000099929999e-05 9.993000099929999e-05 0.4996502449965024 0.4996502449965024 0.0001996804154215864 0.0001996804154215864 0.0001996804154215864 0.0001996804154215864 0.0001996804154215864 0.0001996804154215864 0.0001996804154215864 0.0001996804154215864 0.9984025566766273 0.9984027162775232 0.0001996604653095936 0.0001996604653095936 0.0001996604653095936 0.0001996604653095936 0.0001996604653095936 0.0001996604653095936 0.0001996604653095936 0.0001996604653095936 0.9992006399999998 9.991999999999998e-05 9.991999999999998e-05 9.991999999999998e-05 9.991999999999998e-05 9.991999999999998e-05 9.991999999999998e-05 9.991999999999998e-05 9.991999999999998e-05 0.9992006399999998 9.991999999999998e-05 9.991999999999998e-05 9.991999999999998e-05 9.991999999999998e-05 9.991999999999998e-05 9.991999999999998e-05 9.991999999999998e-05 9.991999999999998e-05 0.9992006399999998 9.991999999999998e-05 9.991999999999998e-05 9.991999999999998e-05 9.991999999999998e-05 9.991999999999998e-05 9.991999999999998e-05 9.991999999999998e-05 9.991999999999998e-05 0.4998250613405811 4.998247411966316e-05 4.998247411966316e-05 4.998247411966316e-05 4.998247411966316e-05 0.4998250613405811 4.998247411966316e-05 4.998247411966316e-05 4.998247411966316e-05 9.992000000000001e-05 9.992000000000001e-05 9.992000000000001e-05 9.992000000000001e-05 9.992000000000001e-05 9.992000000000001e-05 0.99920064 9.992000000000001e-05 9.992000000000001e-05 9.992000000000001e-05 9.992000000000001e-05 9.992000000000001e-05 9.992000000000001e-05 9.992000000000001e-05 9.992000000000001e-05 9.992000000000001e-05 0.99920064 9.992000000000001e-05 9.992000000000001e-05 9.992000000000001e-05 9.992000000000001e-05 9.992000000000001e-05 9.992000000000001e-05 9.992000000000001e-05 9.992000000000001e-05 9.992000000000001e-05 0.99920064 0.1111111111111111 0.1111111111111111 0.1111111111111111 0.1111111111111111 0.1111111111111111 0.1111111111111111 0.1111111111111111 0.1111111111111111 0.1111111111111111 0.9992006399999998 9.991999999999998e-05 9.991999999999998e-05 9.991999999999998e-05 9.991999999999998e-05 9.991999999999998e-05 9.991999999999998e-05 9.991999999999998e-05 9.991999999999998e-05 0.9992006399999998 9.991999999999998e-05 9.991999999999998e-05 9.991999999999998e-05 9.991999999999998e-05 9.991999999999998e-05 9.991999999999998e-05 9.991999999999998e-05 9.991999999999998e-05 0.9992006399999998 9.991999999999998e-05 9.991999999999998e-05 9.991999999999998e-05 9.991999999999998e-05 9.991999999999998e-05 9.991999999999998e-05 9.991999999999998e-05 9.991999999999998e-05 0.4998250613405811 4.998247411966316e-05 4.998247411966316e-05 4.998247411966316e-05 4.998247411966316e-05 0.4998250613405811 4.998247411966316e-05 4.998247411966316e-05 4.998247411966316e-05 9.992000000000001e-05 9.992000000000001e-05 9.992000000000001e-05 9.992000000000001e-05 9.992000000000001e-05 9.992000000000001e-05 0.99920064 9.992000000000001e-05 9.992000000000001e-05 9.992000000000001e-05 9.992000000000001e-05 9.992000000000001e-05 9.992000000000001e-05 9.992000000000001e-05 9.992000000000001e-05 9.992000000000001e-05 0.99920064 9.992000000000001e-05 9.992000000000001e-05 9.992000000000001e-05 9.992000000000001e-05 9.992000000000001e-05 9.992000000000001e-05 9.992000000000001e-05 9.992000000000001e-05 9.992000000000001e-05 0.99920064 0.1111111111111111 0.1111111111111111 0.1111111111111111 0.1111111111111111 0.1111111111111111 0.1111111111111111 0.1111111111111111 0.1111111111111111 0.1111111111111111 0.9992006399999998 9.991999999999998e-05 9.991999999999998e-05 9.991999999999998e-05 9.991999999999998e-05 9.991999999999998e-05 9.991999999999998e-05 9.991999999999998e-05 9.991999999999998e-05 0.9992006399999998 9.991999999999998e-05 9.991999999999998e-05 9.991999999999998e-05 9.991999999999998e-05 9.991999999999998e-05 9.991999999999998e-05 9.991999999999998e-05 9.991999999999998e-05 0.9992006399999998 9.991999999999998e-05 9.991999999999998e-05 9.991999999999998e-05 9.991999999999998e-05 9.991999999999998e-05 9.991999999999998e-05 9.991999999999998e-05 9.991999999999998e-05 0.4998250663410803 4.998747686897414e-05 4.998747686897414e-05 4.998747686897414e-05 0.249937504398853 0.249937504398853 4.998747686897414e-05 4.998747686897414e-05 4.998747686897414e-05 9.993000099930002e-05 9.993000099930002e-05 9.993000099930002e-05 9.993000099930002e-05 9.993000099930002e-05 0.4996502449965025 0.4996502449965025 9.993000099930002e-05 9.993000099930002e-05 9.993000099929999e-05 9.993000099929999e-05 9.993000099929999e-05 9.993000099929999e-05 9.993000099929999e-05 9.993000099929999e-05 0.4996502449965024 0.4996502449965024 9.993000099929999e-05 9.993000099929999e-05 9.993000099929999e-05 9.993000099929999e-05 9.993000099929999e-05 9.993000099929999e-05 9.993000099929999e-05 9.993000099929999e-05 0.4996502449965024 0.4996502449965024 0.0001996804154215864 0.0001996804154215864 0.0001996804154215864 0.0001996804154215864 0.0001996804154215864 0.0001996804154215864 0.0001996804154215864 0.0001996804154215864 0.9984025566766273 0.9984027162775232 0.0001996604653095936 0.0001996604653095936 0.0001996604653095936 0.0001996604653095936 0.0001996604653095936 0.0001996604653095936 0.0001996604653095936 0.0001996604653095936 0.9992006399999998 9.991999999999998e-05 9.991999999999998e-05 9.991999999999998e-05 9.991999999999998e-05 9.991999999999998e-05 9.991999999999998e-05 9.991999999999998e-05 9.991999999999998e-05 0.9992006399999998 9.991999999999998e-05 9.991999999999998e-05 9.991999999999998e-05 9.991999999999998e-05 9.991999999999998e-05 9.991999999999998e-05 9.991999999999998e-05 9.991999999999998e-05 0.4998250613405811 4.998247411966316e-05 4.998247411966316e-05 4.998247411966316e-05 0.4998250613405811 4.998247411966316e-05 4.998247411966316e-05 4.998247411966316e-05 4.998247411966316e-05 9.992000000000001e-05 9.992000000000001e-05 9.992000000000001e-05 9.992000000000001e-05 9.992000000000001e-05 0.99920064 9.992000000000001e-05 9.992000000000001e-05 9.992000000000001e-05 9.992000000000001e-05 9.992000000000001e-05 9.992000000000001e-05 9.992000000000001e-05 9.992000000000001e-05 9.992000000000001e-05 0.99920064 9.992000000000001e-05 